{"learner":{"attributes":{"scikit_learn":"{\"_estimator_type\": \"regressor\"}"},"feature_names":["arome_t2m","sic"],"feature_types":["float","float"],"gradient_booster":{"model":{"gbtree_model_param":{"num_parallel_tree":"1","num_trees":"100"},"iteration_indptr":[0,1,2,3,4,5,6,7,8,9,10,11,12,13,14,15,16,17,18,19,20,21,22,23,24,25,26,27,28,29,30,31,32,33,34,35,36,37,38,39,40,41,42,43,44,45,46,47,48,49,50,51,52,53,54,55,56,57,58,59,60,61,62,63,64,65,66,67,68,69,70,71,72,73,74,75,76,77,78,79,80,81,82,83,84,85,86,87,88,89,90,91,92,93,94,95,96,97,98,99,100],"tree_info":[0,0,0,0,0,0,0,0,0,0,0,0,0,0,0,0,0,0,0,0,0,0,0,0,0,0,0,0,0,0,0,0,0,0,0,0,0,0,0,0,0,0,0,0,0,0,0,0,0,0,0,0,0,0,0,0,0,0,0,0,0,0,0,0,0,0,0,0,0,0,0,0,0,0,0,0,0,0,0,0,0,0,0,0,0,0,0,0,0,0,0,0,0,0,0,0,0,0,0,0],"trees":[{"base_weights":[5.3385086E-3,7.806744E-1,-8.465901E-2,1.242261E0,4.487684E-1,2.2481266E-1,-3.1418964E-1,9.8027796E-1,1.5129187E0,9.587381E-1,2.4060254E-1,3.37116E-1,-1.4639485E-1,-4.6023923E-1,3.0822867E-1,1.2500006E0,8.5249156E-1,1.5578194E0,-7.4201757E-3,1.3681117E0,1.5617055E-2,-1.4164828E-1,3.9849523E-1,-1.4643807E0,3.6979225E-1,-4.600698E-1,-7.434873E-2,1.8217953E-1,-6.568082E-1,4.2379546E-1,-8.0578625E-2,7.526199E-1,1.7958096E0,5.131759E-1,1.047388E0,1.3031197E-1,2.4632294E-1,1.7683712E-1,1.878242E0,-1.0531914E-1,6.1248954E-2,-4.5432842E-1,1.8192787E-1,2.1739786E0,1.9383976E-1,3.0489385E-2,-1.8419095E0,-7.661389E-1,4.103523E-1,-8.1584084E-1,-3.4205112E-1,1.7007962E-1,-1.05795495E-1,-5.2772516E-1,5.214763E-1,-1.0947758E0,-4.8355222E-1,7.7771306E-2,3.9399868E-1,-1.4169493E0,1.9169917E-2,2.143657E-2,1.03269935E-1,8.2538076E-2,2.1676354E-1,-2.0489328E-2,5.84173E-2,1.4365952E-1,7.273075E-2,2.472307E-1,-5.0427385E-2,2.4140453E-1,1.040683E-1,-4.94137E-3,-1.7682388E-2,-6.213687E-2,-6.279019E-3,5.3049006E-2,-1.9262398E-2,1.1077755E-1,2.870923E-1,5.7827223E-2,-2.120102E-2,-1.4990061E-2,1.9563468E-2,-2.095584E-1,-3.3094578E-3,-1.0881714E-1,-3.6749262E-2,-1.0303099E-2,4.746088E-2,-9.00815E-2,-1.5299814E-2,1.617E-2,-4.1809447E-2,3.1326056E-2,-1.2076534E-2,-2.1794869E-2,-7.3150373E-3,-1.0409379E-1,-2.8299263E-2,1.0527998E-1,3.6434844E-2,-1.6097948E-1,-4.1184876E-2,-3.4713317E-2,-1.0347742E-1,2.9158587E-2,5.4791894E-2,2.1568473E-2,-2.3411086E-1,1.2247614E-2,-3.1332698E-2],"categories":[],"categories_nodes":[],"categories_segments":[],"categories_sizes":[],"default_left":[0,0,0,0,0,0,0,0,0,0,0,0,0,0,0,0,0,0,0,0,0,0,0,0,0,0,0,0,0,0,0,0,0,0,0,0,0,0,0,0,0,0,0,0,0,0,0,0,0,0,0,0,0,0,0,0,0,0,0,0,0,0,0,0,0,0,0,0,0,0,0,0,0,0,0,0,0,0,0,0,0,0,0,0,0,0,0,0,0,0,0,0,0,0,0,0,0,0,0,0,0,0,0,0,0,0,0,0,0,0,0,0,0],"id":0,"left_children":[1,3,5,7,9,11,13,15,17,19,21,23,25,27,29,31,33,35,-1,37,39,41,43,45,47,49,51,53,55,57,59,61,63,65,67,-1,-1,69,71,73,-1,75,77,79,81,83,85,87,89,91,93,95,97,99,101,103,105,-1,107,109,111,-1,-1,-1,-1,-1,-1,-1,-1,-1,-1,-1,-1,-1,-1,-1,-1,-1,-1,-1,-1,-1,-1,-1,-1,-1,-1,-1,-1,-1,-1,-1,-1,-1,-1,-1,-1,-1,-1,-1,-1,-1,-1,-1,-1,-1,-1,-1,-1,-1,-1,-1,-1],"loss_changes":[1.3083064E2,2.9317177E1,1.19406456E2,4.2604446E0,1.1977528E1,2.989785E1,8.786417E1,4.5092773E-1,2.8235703E0,1.2719566E1,5.065878E0,3.29179E1,3.7398374E0,9.8870316E1,8.301861E0,1.9061356E0,1.6448421E0,5.3226013E0,0E0,1.3645077E1,8.585252E-1,2.612051E0,2.1016975E1,5.6997223E0,2.5240105E1,1.0225577E0,1.0710416E0,4.4594986E1,4.4923004E1,1.1910591E0,5.759107E0,9.8465633E-1,1.5028E-2,8.334248E-1,1.4467049E0,0E0,0E0,1.37544775E1,4.6680145E0,3.1237513E-2,0E0,8.1121874E-1,1.799395E0,1.2781715E0,8.547782E0,1.1869743E-1,3.6014462E0,2.0392685E0,1.730172E1,2.564478E-1,1.0252788E0,7.0412624E-1,4.3072987E-1,7.241413E0,1.0052132E1,5.8777756E1,3.205078E1,0E0,1.9367676E0,5.0313826E0,1.4466838E0,0E0,0E0,0E0,0E0,0E0,0E0,0E0,0E0,0E0,0E0,0E0,0E0,0E0,0E0,0E0,0E0,0E0,0E0,0E0,0E0,0E0,0E0,0E0,0E0,0E0,0E0,0E0,0E0,0E0,0E0,0E0,0E0,0E0,0E0,0E0,0E0,0E0,0E0,0E0,0E0,0E0,0E0,0E0,0E0,0E0,0E0,0E0,0E0,0E0,0E0,0E0,0E0],"parents":[2147483647,0,0,1,1,2,2,3,3,4,4,5,5,6,6,7,7,8,8,9,9,10,10,11,11,12,12,13,13,14,14,15,15,16,16,17,17,19,19,20,20,21,21,22,22,23,23,24,24,25,25,26,26,27,27,28,28,29,29,30,30,31,31,32,32,33,33,34,34,37,37,38,38,39,39,41,41,42,42,43,43,44,44,45,45,46,46,47,47,48,48,49,49,50,50,51,51,52,52,53,53,54,54,55,55,56,56,58,58,59,59,60,60],"right_children":[2,4,6,8,10,12,14,16,18,20,22,24,26,28,30,32,34,36,-1,38,40,42,44,46,48,50,52,54,56,58,60,62,64,66,68,-1,-1,70,72,74,-1,76,78,80,82,84,86,88,90,92,94,96,98,100,102,104,106,-1,108,110,112,-1,-1,-1,-1,-1,-1,-1,-1,-1,-1,-1,-1,-1,-1,-1,-1,-1,-1,-1,-1,-1,-1,-1,-1,-1,-1,-1,-1,-1,-1,-1,-1,-1,-1,-1,-1,-1,-1,-1,-1,-1,-1,-1,-1,-1,-1,-1,-1,-1,-1,-1,-1],"split_conditions":[-5.3717957E0,8.933077E-1,7.9017025E-1,-5.8851013E0,-6.8696594E0,7.230835E-1,-4.3029785E-3,8.432398E-1,8.905925E-1,9.785423E-1,9.153614E-1,-4.901123E0,4.6653843E-1,-3.9633179E0,9.9701977E-1,8.3468366E-1,8.643665E-1,8.873472E-1,-7.4201757E-3,9.409914E-1,-7.717682E0,-5.8851013E0,9.195337E-1,7.68512E-1,3.5374653E-1,9.8349E-1,4.7547913E-1,8.406632E-1,8.3349156E-1,7.958932E-1,4.434204E-2,-6.37854E0,-6.8696594E0,8.434531E-1,8.766265E-1,1.3031197E-1,2.4632294E-1,-8.218994E0,9.666214E-1,-8.218994E0,6.1248954E-2,9.0940094E-1,-5.625885E0,-5.761078E0,-6.245636E0,-5.2431946E0,7.8482723E-1,2.3661435E-1,-1.2254639E0,4.502452E-1,2.7858436E-1,1.3397217E0,4.969368E-1,8.0685955E-1,-5.005188E0,-5.434265E-1,9.8629093E-1,7.7771306E-2,9.886751E-1,3.1219482E-2,1E0,2.143657E-2,1.03269935E-1,8.2538076E-2,2.1676354E-1,-2.0489328E-2,5.84173E-2,1.4365952E-1,7.273075E-2,2.472307E-1,-5.0427385E-2,2.4140453E-1,1.040683E-1,-4.94137E-3,-1.7682388E-2,-6.213687E-2,-6.279019E-3,5.3049006E-2,-1.9262398E-2,1.1077755E-1,2.870923E-1,5.7827223E-2,-2.120102E-2,-1.4990061E-2,1.9563468E-2,-2.095584E-1,-3.3094578E-3,-1.0881714E-1,-3.6749262E-2,-1.0303099E-2,4.746088E-2,-9.00815E-2,-1.5299814E-2,1.617E-2,-4.1809447E-2,3.1326056E-2,-1.2076534E-2,-2.1794869E-2,-7.3150373E-3,-1.0409379E-1,-2.8299263E-2,1.0527998E-1,3.6434844E-2,-1.6097948E-1,-4.1184876E-2,-3.4713317E-2,-1.0347742E-1,2.9158587E-2,5.4791894E-2,2.1568473E-2,-2.3411086E-1,1.2247614E-2,-3.1332698E-2],"split_indices":[0,1,1,0,0,0,0,1,1,1,1,0,1,0,1,1,1,1,0,1,0,0,1,1,1,0,1,1,1,1,0,0,0,1,1,0,0,0,1,0,0,1,0,0,0,0,1,1,0,1,1,0,1,1,0,0,1,0,1,0,1,0,0,0,0,0,0,0,0,0,0,0,0,0,0,0,0,0,0,0,0,0,0,0,0,0,0,0,0,0,0,0,0,0,0,0,0,0,0,0,0,0,0,0,0,0,0,0,0,0,0,0,0],"split_type":[0,0,0,0,0,0,0,0,0,0,0,0,0,0,0,0,0,0,0,0,0,0,0,0,0,0,0,0,0,0,0,0,0,0,0,0,0,0,0,0,0,0,0,0,0,0,0,0,0,0,0,0,0,0,0,0,0,0,0,0,0,0,0,0,0,0,0,0,0,0,0,0,0,0,0,0,0,0,0,0,0,0,0,0,0,0,0,0,0,0,0,0,0,0,0,0,0,0,0,0,0,0,0,0,0,0,0,0,0,0,0,0,0],"sum_hessian":[1.873E3,1.94E2,1.679E3,8E1,1.14E2,7.15E2,9.64E2,4.3E1,3.7E1,3.2E1,8.2E1,5.49E2,1.66E2,7.81E2,1.83E2,1.1E1,3.2E1,3.6E1,1E0,2.2E1,1E1,2.4E1,5.8E1,9E0,5.4E2,3E1,1.36E2,1.83E2,5.98E2,1.41E2,4.2E1,7E0,4E0,1.3E1,1.9E1,3E1,6E0,7E0,1.5E1,9E0,1E0,1.2E1,1.2E1,5E0,5.3E1,2E0,7E0,1.8E1,5.22E2,6E0,2.4E1,1.5E1,1.21E2,5.9E1,1.24E2,1.68E2,4.3E2,9E0,1.32E2,2E0,4E1,3E0,4E0,2E0,2E0,1E0,1.2E1,7E0,1.2E1,1E0,6E0,8E0,7E0,6E0,3E0,8E0,4E0,6E0,6E0,3E0,2E0,2.7E1,2.6E1,1E0,1E0,6E0,1E0,9E0,9E0,5.8E1,4.64E2,5E0,1E0,3E0,2.1E1,1E1,5E0,2.6E1,9.5E1,1.8E1,4.1E1,2.7E1,9.7E1,9.5E1,7.3E1,3.46E2,8.4E1,8.1E1,5.1E1,1E0,1E0,3.1E1,9E0],"tree_param":{"num_deleted":"0","num_feature":"2","num_nodes":"113","size_leaf_vector":"1"}},{"base_weights":[-8.087336E-3,5.7873356E-1,-1.2766086E-1,-6.104903E-1,6.759064E-1,1.6844222E-1,-3.7415263E-1,-1.3127828E0,1.0459789E0,7.162602E-1,-3.7997447E-2,-1.540983E-1,3.0981997E-1,-5.71727E-1,2.4375294E-1,1.0051157E-2,-1.5780196E0,4.7171157E-2,1.296197E-1,9.1643643E-1,5.3887767E-1,5.4232996E-2,-2.0109117E-1,-1.9254035E-1,-2.4998419E-2,-7.9551566E-1,3.3845448E-1,-1.0829822E0,-3.664452E-1,3.8607028E-1,-4.587916E-1,-1.1050042E-1,1.8585294E-2,-9.839795E-2,-1.8647152E-1,8.0522674E-1,2.0665402E0,2.6432225E-1,8.3613944E-1,-1.13643765E-1,-4.172316E-2,1.675134E0,-1.2896061E-1,4.3486473E-1,-1.3906697E0,4.3275532E-1,-6.441985E-2,-1.2541928E0,-6.968298E-1,2.8868142E-1,-4.1969776E-1,7.9118925E-1,3.3490998E-1,-2.5244782E0,-4.4181578E-2,-1.4240557E-2,-2.334506E-3,9.6792765E-2,2.963975E-2,2.9450795E-2,2.2142927E-1,5.4513354E-2,-2.5799913E-2,1.4216037E-1,5.8838684E-2,-1.1160435E-2,3.9842557E-2,9.561385E-2,2.8740904E-1,-8.7948844E-2,-7.958065E-3,7.697407E-2,1.5871057E-2,-1.75581E-1,-7.5119506E-3,7.4512474E-2,3.695447E-2,1.5878268E-2,-1.3482593E-2,-5.3652532E-2,-1.3809526E-1,5.6456562E-2,-1.02394044E-1,-8.7554686E-2,7.091852E-2,-3.4332536E-2,-7.403741E-2,1.1357945E-1,5.8698773E-2,2.7224658E-2,4.30092E-2,-7.453482E-2,-2.7312347E-1,9.879682E-3,-2.4975143E-2],"categories":[],"categories_nodes":[],"categories_segments":[],"categories_sizes":[],"default_left":[0,0,0,0,0,0,0,0,0,0,0,0,0,0,0,0,0,0,0,0,0,0,0,0,0,0,0,0,0,0,0,0,0,0,0,0,0,0,0,0,0,0,0,0,0,0,0,0,0,0,0,0,0,0,0,0,0,0,0,0,0,0,0,0,0,0,0,0,0,0,0,0,0,0,0,0,0,0,0,0,0,0,0,0,0,0,0,0,0,0,0,0,0,0,0],"id":1,"left_children":[1,3,5,7,9,11,13,15,17,19,21,23,25,27,29,31,33,-1,-1,35,37,-1,39,-1,41,43,45,47,49,51,53,55,-1,-1,-1,57,59,61,63,-1,65,67,69,71,73,75,77,79,81,83,85,87,89,91,93,-1,-1,-1,-1,-1,-1,-1,-1,-1,-1,-1,-1,-1,-1,-1,-1,-1,-1,-1,-1,-1,-1,-1,-1,-1,-1,-1,-1,-1,-1,-1,-1,-1,-1,-1,-1,-1,-1,-1,-1],"loss_changes":[1.3430571E2,3.785417E1,1.161123E2,3.0456285E1,8.669815E0,3.301658E1,1.0610678E2,6.331417E0,5.3810596E-1,9.590378E0,1.7180696E0,5.048911E1,1.6189575E1,6.866115E1,2.1273808E1,1.0530956E-1,7.197914E-1,0E0,0E0,1.5219101E1,1.2266056E1,0E0,2.0394845E0,0E0,3.680317E1,1.012421E1,1.8681648E1,1.1555374E1,1.6553017E1,3.3827991E0,3.0720823E1,5.0176457E-3,0E0,0E0,0E0,9.813118E0,2.2279167E0,1.2021215E1,9.75222E0,0E0,4.443215E-1,7.5965004E0,7.1939735E0,3.4022093E-1,4.191347E0,7.5831757E0,1.4986007E0,1.0994385E1,2.5335033E1,1.824517E1,1.0423805E1,6.703119E-1,8.252907E-1,1.713562E-1,9.3582815E-1,0E0,0E0,0E0,0E0,0E0,0E0,0E0,0E0,0E0,0E0,0E0,0E0,0E0,0E0,0E0,0E0,0E0,0E0,0E0,0E0,0E0,0E0,0E0,0E0,0E0,0E0,0E0,0E0,0E0,0E0,0E0,0E0,0E0,0E0,0E0,0E0,0E0,0E0,0E0,0E0],"parents":[2147483647,0,0,1,1,2,2,3,3,4,4,5,5,6,6,7,7,8,8,9,9,10,10,11,11,12,12,13,13,14,14,15,15,16,16,19,19,20,20,22,22,24,24,25,25,26,26,27,27,28,28,29,29,30,30,31,31,35,35,36,36,37,37,38,38,40,40,41,41,42,42,43,43,44,44,45,45,46,46,47,47,48,48,49,49,50,50,51,51,52,52,53,53,54,54],"right_children":[2,4,6,8,10,12,14,16,18,20,22,24,26,28,30,32,34,-1,-1,36,38,-1,40,-1,42,44,46,48,50,52,54,56,-1,-1,-1,58,60,62,64,-1,66,68,70,72,74,76,78,80,82,84,86,88,90,92,94,-1,-1,-1,-1,-1,-1,-1,-1,-1,-1,-1,-1,-1,-1,-1,-1,-1,-1,-1,-1,-1,-1,-1,-1,-1,-1,-1,-1,-1,-1,-1,-1,-1,-1,-1,-1,-1,-1,-1,-1],"split_conditions":[-4.6220093E0,8.0505085E-1,7.958932E-1,-4.773041E0,-4.689575E0,4.891882E-1,-8.093262E-2,7.68512E-1,7.7469444E-1,8.905925E-1,8.155627E-1,-1.2025757E0,-3.4956055E0,8.3349156E-1,9.9821186E-1,-5.1249695E0,-5.1249695E0,4.7171157E-2,1.296197E-1,8.873472E-1,9.445677E-1,5.4232996E-2,8.384714E-1,-1.9254035E-1,-8.034973E-1,-4.3677063E0,7.230835E-1,-5.434265E-1,-4.3677063E0,-4.3029785E-3,4.434204E-2,-5.2431946E0,1.8585294E-2,-9.839795E-2,-1.8647152E-1,-5.005188E0,-5.8851013E0,9.320507E-1,9.678135E-1,-1.13643765E-1,9.511242E-1,-8.861084E-1,2.3661435E-1,-4.5771484E0,7.7469444E-1,-7.770996E-1,5.338917E-1,-4.0401E0,8.1198645E-1,8.406632E-1,9.8629093E-1,8.1854296E-1,9.886751E-1,-7.3272705E-2,1E0,-1.4240557E-2,-2.334506E-3,9.6792765E-2,2.963975E-2,2.9450795E-2,2.2142927E-1,5.4513354E-2,-2.5799913E-2,1.4216037E-1,5.8838684E-2,-1.1160435E-2,3.9842557E-2,9.561385E-2,2.8740904E-1,-8.7948844E-2,-7.958065E-3,7.697407E-2,1.5871057E-2,-1.75581E-1,-7.5119506E-3,7.4512474E-2,3.695447E-2,1.5878268E-2,-1.3482593E-2,-5.3652532E-2,-1.3809526E-1,5.6456562E-2,-1.02394044E-1,-8.7554686E-2,7.091852E-2,-3.4332536E-2,-7.403741E-2,1.1357945E-1,5.8698773E-2,2.7224658E-2,4.30092E-2,-7.453482E-2,-2.7312347E-1,9.879682E-3,-2.4975143E-2],"split_indices":[0,1,1,0,0,1,0,1,1,1,1,0,0,1,1,0,0,0,0,1,1,0,1,0,0,0,0,0,0,0,0,0,0,0,0,0,0,1,1,0,1,0,1,0,1,0,1,0,1,1,1,1,1,0,1,0,0,0,0,0,0,0,0,0,0,0,0,0,0,0,0,0,0,0,0,0,0,0,0,0,0,0,0,0,0,0,0,0,0,0,0,0,0,0,0],"split_type":[0,0,0,0,0,0,0,0,0,0,0,0,0,0,0,0,0,0,0,0,0,0,0,0,0,0,0,0,0,0,0,0,0,0,0,0,0,0,0,0,0,0,0,0,0,0,0,0,0,0,0,0,0,0,0,0,0,0,0,0,0,0,0,0,0,0,0,0,0,0,0,0,0,0,0,0,0,0,0,0,0,0,0,0,0,0,0,0,0,0,0,0,0,0,0],"sum_hessian":[1.912E3,3.23E2,1.589E3,2.4E1,2.99E2,7.22E2,8.67E2,1.7E1,7E0,2.83E2,1.6E1,2.2E2,5.02E2,6.57E2,2.1E2,3E0,1.4E1,3E0,4E0,1.31E2,1.52E2,3E0,1.3E1,1.4E1,2.06E2,1.2E1,4.9E2,1.87E2,4.7E2,1.75E2,3.5E1,2E0,1E0,6E0,8E0,1.21E2,1E1,8E1,7.2E1,1E0,1.2E1,1.1E1,1.95E2,4E0,8E0,3.97E2,9.3E1,1.28E2,5.9E1,3.5E1,4.35E2,1.8E1,1.57E2,5E0,3E1,1E0,1E0,9.1E1,3E1,1E0,9E0,5.2E1,2.8E1,2E1,5.2E1,1.1E1,1E0,8E0,3E0,1.1E1,1.84E2,1E0,3E0,6E0,2E0,6.5E1,3.32E2,2.2E1,7.1E1,2E1,1.08E2,1.2E1,4.7E1,9E0,2.6E1,3.53E2,8.2E1,5E0,1.3E1,9.7E1,6E1,1E0,4E0,1.8E1,1.2E1],"tree_param":{"num_deleted":"0","num_feature":"2","num_nodes":"95","size_leaf_vector":"1"}},{"base_weights":[-2.811733E-2,4.8051214E-1,-1.2581515E-1,-5.4734707E-1,5.6177616E-1,1.4438702E-1,-3.5151133E-1,-1.3556263E0,8.6060125E-1,6.736685E-1,2.2140482E-1,-1.3264811E-1,2.758827E-1,-5.2516603E-1,1.8740875E-1,1.0292165E-1,-1.5879354E-1,1.0357699E0,1.650073E-1,9.7082114E-1,4.3725514E-1,6.1236802E-2,8.8058394E-1,-1.7618638E-1,-3.7076566E-2,-7.0220274E-1,3.037773E-1,-9.4569206E-1,-3.5904157E-1,3.5447496E-1,-6.438467E-1,-2.2177808E-3,1.7656028E-2,4.555465E-2,1.1767501E-1,7.312536E-2,-4.837427E-2,7.364611E-1,1.2687957E0,-2.3947549E-1,5.900587E-1,9.362553E-1,-7.4559055E-2,1.3171226E0,2.5588498E-1,1.4346601E0,-1.2757657E-1,-1.0611923E0,4.6056937E-2,3.9216E-1,-5.4759048E-2,-1.1184006E0,-5.8223635E-1,-2.627431E-1,-8.230238E-1,8.140417E-1,3.193296E-1,-2.8784156E0,-5.212263E-3,9.454638E-2,3.5305377E-2,9.828713E-2,1.4806859E-1,-4.0293813E-2,5.957062E-3,5.0522447E-2,1.6328478E-1,1.09668426E-1,5.0165523E-2,-8.7166436E-2,4.836043E-3,1.6743083E-1,1.6371036E-2,-5.0557613E-2,6.6158466E-2,8.0164485E-2,2.6585335E-1,-7.824611E-2,-4.3295696E-3,-1.7906427E-2,-1.766455E-1,2.7286867E-2,5.8425356E-2,2.2393396E-2,-1.3104582E-2,-6.0475893E-2,-1.253743E-1,3.590511E-2,-9.174462E-2,-3.5204366E-2,6.931465E-2,-8.507181E-3,-2.2168231E-1,1.2796202E-1,5.9296396E-2,3.458644E-2,1.5477739E-2,-8.069982E-2,-3.0590472E-1,1.348746E-2,-2.4670662E-2],"categories":[],"categories_nodes":[],"categories_segments":[],"categories_sizes":[],"default_left":[0,0,0,0,0,0,0,0,0,0,0,0,0,0,0,0,0,0,0,0,0,0,0,0,0,0,0,0,0,0,0,0,0,0,0,0,0,0,0,0,0,0,0,0,0,0,0,0,0,0,0,0,0,0,0,0,0,0,0,0,0,0,0,0,0,0,0,0,0,0,0,0,0,0,0,0,0,0,0,0,0,0,0,0,0,0,0,0,0,0,0,0,0,0,0,0,0,0,0,0,0],"id":2,"left_children":[1,3,5,7,9,11,13,15,17,19,21,23,25,27,29,31,-1,33,35,37,39,41,43,-1,45,47,49,51,53,55,57,-1,-1,-1,-1,-1,-1,59,61,63,65,67,69,71,73,75,77,79,-1,81,83,85,87,89,91,93,95,97,99,-1,-1,-1,-1,-1,-1,-1,-1,-1,-1,-1,-1,-1,-1,-1,-1,-1,-1,-1,-1,-1,-1,-1,-1,-1,-1,-1,-1,-1,-1,-1,-1,-1,-1,-1,-1,-1,-1,-1,-1,-1,-1],"loss_changes":[9.467402E1,2.5950577E1,9.750253E1,2.734101E1,1.0705055E1,2.655685E1,8.1611824E1,5.245943E0,9.2570686E-1,1.4609184E1,7.5477943E0,3.652574E1,1.3691273E1,4.5697998E1,2.9808538E1,3.1552177E-2,0E0,3.6535263E-2,1.4557955E0,5.6299133E0,1.265353E1,7.0804152E0,3.4808407E0,0E0,2.9884884E1,6.332676E0,1.5263596E1,1.1024384E1,2.0962452E1,2.6150436E0,5.135961E1,0E0,0E0,0E0,0E0,0E0,0E0,4.0735245E0,9.680557E-1,1.1483091E0,7.9330025E0,7.622242E-3,5.137102E0,3.0217562E0,2.496953E0,7.940298E0,1.1612106E1,6.5271435E0,0E0,8.685802E0,2.070362E0,7.931488E0,1.9892197E1,3.387644E1,8.312453E1,4.7637987E-1,6.7564964E-1,5.246582E-1,1.0143498E0,0E0,0E0,0E0,0E0,0E0,0E0,0E0,0E0,0E0,0E0,0E0,0E0,0E0,0E0,0E0,0E0,0E0,0E0,0E0,0E0,0E0,0E0,0E0,0E0,0E0,0E0,0E0,0E0,0E0,0E0,0E0,0E0,0E0,0E0,0E0,0E0,0E0,0E0,0E0,0E0,0E0,0E0],"parents":[2147483647,0,0,1,1,2,2,3,3,4,4,5,5,6,6,7,7,8,8,9,9,10,10,11,11,12,12,13,13,14,14,15,15,17,17,18,18,19,19,20,20,21,21,22,22,24,24,25,25,26,26,27,27,28,28,29,29,30,30,37,37,38,38,39,39,40,40,41,41,42,42,43,43,44,44,45,45,46,46,47,47,49,49,50,50,51,51,52,52,53,53,54,54,55,55,56,56,57,57,58,58],"right_children":[2,4,6,8,10,12,14,16,18,20,22,24,26,28,30,32,-1,34,36,38,40,42,44,-1,46,48,50,52,54,56,58,-1,-1,-1,-1,-1,-1,60,62,64,66,68,70,72,74,76,78,80,-1,82,84,86,88,90,92,94,96,98,100,-1,-1,-1,-1,-1,-1,-1,-1,-1,-1,-1,-1,-1,-1,-1,-1,-1,-1,-1,-1,-1,-1,-1,-1,-1,-1,-1,-1,-1,-1,-1,-1,-1,-1,-1,-1,-1,-1,-1,-1,-1,-1],"split_conditions":[-4.536377E0,8.0505085E-1,7.958932E-1,-4.773041E0,-5.005188E0,4.9336052E-1,-8.093262E-2,7.68512E-1,-4.6220093E0,8.933077E-1,9.111891E-1,-1.2025757E0,-3.4956055E0,8.3349156E-1,9.9821186E-1,-5.1249695E0,-1.5879354E-1,7.7469444E-1,7.770316E-1,8.662932E-1,9.141693E-1,8.294084E-1,-4.689575E0,-1.7618638E-1,-8.034973E-1,7.8044343E-1,7.666931E-1,-6.290283E-1,9.8629093E-1,-4.1290283E-2,4.434204E-2,-2.2177808E-3,1.7656028E-2,4.555465E-2,1.1767501E-1,7.312536E-2,-4.837427E-2,8.5933304E-1,-5.7950134E0,-5.8851013E0,-5.1917725E0,-4.710449E0,8.384714E-1,9.7496605E-1,9.511242E-1,-8.861084E-1,3.5374653E-1,-4.2075806E0,4.6056937E-2,-1.8304443E-1,5.303154E-1,-3.9633179E0,8.1198645E-1,9.624491E-1,-9.8275757E-1,8.1854296E-1,9.922514E-1,-5.291748E-2,1E0,9.454638E-2,3.5305377E-2,9.828713E-2,1.4806859E-1,-4.0293813E-2,5.957062E-3,5.0522447E-2,1.6328478E-1,1.09668426E-1,5.0165523E-2,-8.7166436E-2,4.836043E-3,1.6743083E-1,1.6371036E-2,-5.0557613E-2,6.6158466E-2,8.0164485E-2,2.6585335E-1,-7.824611E-2,-4.3295696E-3,-1.7906427E-2,-1.766455E-1,2.7286867E-2,5.8425356E-2,2.2393396E-2,-1.3104582E-2,-6.0475893E-2,-1.253743E-1,3.590511E-2,-9.174462E-2,-3.5204366E-2,6.931465E-2,-8.507181E-3,-2.2168231E-1,1.2796202E-1,5.9296396E-2,3.458644E-2,1.5477739E-2,-8.069982E-2,-3.0590472E-1,1.348746E-2,-2.4670662E-2],"split_indices":[0,1,1,0,0,1,0,1,0,1,1,0,0,1,1,0,0,1,1,1,1,1,0,0,0,1,0,0,1,0,0,0,0,0,0,0,0,1,0,0,0,0,1,1,1,0,1,0,0,0,1,0,1,1,0,1,1,0,1,0,0,0,0,0,0,0,0,0,0,0,0,0,0,0,0,0,0,0,0,0,0,0,0,0,0,0,0,0,0,0,0,0,0,0,0,0,0,0,0,0,0],"split_type":[0,0,0,0,0,0,0,0,0,0,0,0,0,0,0,0,0,0,0,0,0,0,0,0,0,0,0,0,0,0,0,0,0,0,0,0,0,0,0,0,0,0,0,0,0,0,0,0,0,0,0,0,0,0,0,0,0,0,0,0,0,0,0,0,0,0,0,0,0,0,0,0,0,0,0,0,0,0,0,0,0,0,0,0,0,0,0,0,0,0,0,0,0,0,0,0,0,0,0,0,0],"sum_hessian":[1.903E3,3.06E2,1.597E3,2.2E1,2.84E2,7.27E2,8.7E2,1.4E1,8E0,2.13E2,7.1E1,2.34E2,4.93E2,6.58E2,2.12E2,2E0,1.2E1,6E0,2E0,9.3E1,1.2E2,5.8E1,1.3E1,1.2E1,2.22E2,1.3E1,4.8E2,1.85E2,4.73E2,1.77E2,3.5E1,1E0,1E0,2E0,4E0,1E0,1E0,5.4E1,3.9E1,2.2E1,9.8E1,7E0,5.1E1,7E0,6E0,1.2E1,2.1E2,1E1,3E0,3.85E2,9.5E1,1.24E2,6.1E1,3.93E2,8E1,1.1E1,1.66E2,7E0,2.8E1,3.4E1,2E1,1.9E1,2E1,1.4E1,8E0,9.2E1,6E0,4E0,3E0,6E0,4.5E1,5E0,2E0,2E0,4E0,9E0,3E0,2.3E1,1.87E2,5E0,5E0,2.39E2,1.46E2,2E1,7.5E1,2.7E1,9.7E1,1.6E1,4.5E1,3.6E2,3.3E1,5.3E1,2.7E1,2E0,9E0,1.42E2,2.4E1,1E0,6E0,1.8E1,1E1],"tree_param":{"num_deleted":"0","num_feature":"2","num_nodes":"101","size_leaf_vector":"1"}},{"base_weights":[1.4410113E-2,5.865857E-1,-5.85627E-2,8.320926E-1,3.8529196E-1,1.5935569E-1,-2.2036514E-1,3.2914093E-1,9.2856866E-1,1.0461032E0,1.4336778E-1,2.3396619E-1,-9.8619685E-2,-3.3635676E-1,1.8261215E-1,5.749689E-1,-1.0097123E0,8.246798E-1,1.3237752E0,1.4374546E0,-1.1373429E-1,8.578772E-2,9.25594E-1,-2.2755626E-1,2.9527757E-1,-3.7150317E-1,-4.129111E-2,-7.6552874E-1,-1.6755673E-1,3.4510043E-1,-5.678498E-1,8.8797474E-1,2.676344E-1,-1.3803922E-1,-1.3417641E-2,8.832704E-1,-6.677946E-2,1.4664118E0,-3.3656932E-2,1.7600768E0,8.9616704E-1,6.985443E-2,-2.1717106E-1,3.5457927E-1,-7.812016E-2,1.8911265E-1,3.5426217E-1,-1.829398E-1,9.115472E-2,1.3916123E0,2.0586912E-1,-6.5846443E-1,-2.0091811E-1,6.958904E-2,-1.2828477E-1,-2.4366912E-1,-8.9302546E-1,2.893316E-1,-2.9431444E-1,6.958992E-1,2.889192E-1,-2.145783E-1,-2.2943776E-2,2.1996886E-2,9.6264765E-2,-2.4203196E-2,7.237739E-2,1.3854508E-1,8.3425365E-2,-4.5198582E-2,3.406867E-2,9.161922E-2,2.6129127E-1,2.4157397E-1,9.66362E-2,6.01389E-2,1.9219737E-1,-2.4770126E-2,5.1126074E-2,1.7545674E-2,-6.6828445E-2,-3.8076457E-2,5.048565E-2,-3.52824E-2,2.4366109E-2,-2.7299723E-2,8.634342E-2,1.0999222E-1,-2.0896193E-2,1.9370144E-2,1.530944E-1,-6.795887E-2,2.4372295E-2,-1.12929106E-1,-4.806736E-2,3.206314E-2,-3.6137342E-2,-3.916612E-4,4.3750897E-2,-4.280293E-2,-6.539471E-3,-7.935217E-2,1.8396562E-2,-1.1527624E-1,-4.5571547E-2,2.7348292E-3,5.0995268E-2,-2.1242058E-2,-6.332813E-2,1.0974276E-1,5.010882E-2,5.3358763E-2,2.5714576E-2,6.8277693E-3,-2.122145E-2],"categories":[],"categories_nodes":[],"categories_segments":[],"categories_sizes":[],"default_left":[0,0,0,0,0,0,0,0,0,0,0,0,0,0,0,0,0,0,0,0,0,0,0,0,0,0,0,0,0,0,0,0,0,0,0,0,0,0,0,0,0,0,0,0,0,0,0,0,0,0,0,0,0,0,0,0,0,0,0,0,0,0,0,0,0,0,0,0,0,0,0,0,0,0,0,0,0,0,0,0,0,0,0,0,0,0,0,0,0,0,0,0,0,0,0,0,0,0,0,0,0,0,0,0,0,0,0,0,0,0,0,0,0,0,0],"id":3,"left_children":[1,3,5,7,9,11,13,15,17,19,21,23,25,27,29,31,33,35,37,39,41,43,45,47,49,51,53,55,57,59,61,63,65,-1,-1,67,69,71,-1,73,75,77,79,81,83,-1,85,-1,87,89,91,93,95,97,99,101,103,105,107,109,111,-1,113,-1,-1,-1,-1,-1,-1,-1,-1,-1,-1,-1,-1,-1,-1,-1,-1,-1,-1,-1,-1,-1,-1,-1,-1,-1,-1,-1,-1,-1,-1,-1,-1,-1,-1,-1,-1,-1,-1,-1,-1,-1,-1,-1,-1,-1,-1,-1,-1,-1,-1,-1,-1],"loss_changes":[7.936555E1,1.0304489E1,5.9483017E1,4.3525543E0,1.903397E1,1.3862148E1,4.5307674E1,6.175721E0,2.1929245E0,1.4688419E1,3.9292116E0,1.5856686E1,2.5189915E0,5.43498E1,2.6657225E1,1.2053094E0,7.884145E-1,3.506237E0,4.0459404E0,2.6138306E0,1.8607876E-1,3.7284923E0,2.6398816E0,3.3861374E1,4.8038162E1,1.238339E0,1.3111196E0,1.3887901E1,3.1416689E1,3.326727E0,3.3483955E1,1.3742113E-1,2.2674868E0,0E0,0E0,3.703308E-1,9.387783E-1,6.4376526E0,0E0,4.951252E0,2.1703835E0,6.873243E-1,1.1799728E0,3.7284036E0,4.77088E0,0E0,1.8326298E0,0E0,1.7183723E1,5.8790054E0,1.5483341E1,2.9426622E-1,1.7058899E0,1.6243653E0,1.4046816E0,1.0256831E1,1.8784225E1,6.80634E0,1.1635422E1,1.327424E0,1.0755281E0,0E0,5.3245616E-1,0E0,0E0,0E0,0E0,0E0,0E0,0E0,0E0,0E0,0E0,0E0,0E0,0E0,0E0,0E0,0E0,0E0,0E0,0E0,0E0,0E0,0E0,0E0,0E0,0E0,0E0,0E0,0E0,0E0,0E0,0E0,0E0,0E0,0E0,0E0,0E0,0E0,0E0,0E0,0E0,0E0,0E0,0E0,0E0,0E0,0E0,0E0,0E0,0E0,0E0,0E0,0E0],"parents":[2147483647,0,0,1,1,2,2,3,3,4,4,5,5,6,6,7,7,8,8,9,9,10,10,11,11,12,12,13,13,14,14,15,15,16,16,17,17,18,18,19,19,20,20,21,21,22,22,23,23,24,24,25,25,26,26,27,27,28,28,29,29,30,30,31,31,32,32,35,35,36,36,37,37,39,39,40,40,41,41,42,42,43,43,44,44,46,46,48,48,49,49,50,50,51,51,52,52,53,53,54,54,55,55,56,56,57,57,58,58,59,59,60,60,62,62],"right_children":[2,4,6,8,10,12,14,16,18,20,22,24,26,28,30,32,34,36,38,40,42,44,46,48,50,52,54,56,58,60,62,64,66,-1,-1,68,70,72,-1,74,76,78,80,82,84,-1,86,-1,88,90,92,94,96,98,100,102,104,106,108,110,112,-1,114,-1,-1,-1,-1,-1,-1,-1,-1,-1,-1,-1,-1,-1,-1,-1,-1,-1,-1,-1,-1,-1,-1,-1,-1,-1,-1,-1,-1,-1,-1,-1,-1,-1,-1,-1,-1,-1,-1,-1,-1,-1,-1,-1,-1,-1,-1,-1,-1,-1,-1,-1,-1],"split_conditions":[-5.2431946E0,8.933077E-1,7.9017025E-1,8.3468366E-1,-6.8696594E0,7.230835E-1,-8.093262E-2,-5.445801E0,8.873472E-1,9.785423E-1,-5.5545654E0,-1.2025757E0,4.6653843E-1,8.3349156E-1,9.9821186E-1,8.3349156E-1,-5.3089294E0,8.84367E-1,-5.3717957E0,9.666214E-1,9.797344E-1,-6.314514E0,9.195337E-1,4.8501587E-1,-8.034973E-1,1.3168945E0,5.338917E-1,-4.0401E0,-3.9633179E0,-1.2878418E-2,4.434204E-2,-6.6310425E0,-5.9933777E0,-1.3803922E-1,-1.3417641E-2,8.432398E-1,-6.0607605E0,-5.7950134E0,-3.3656932E-2,-7.3316345E0,-7.107605E0,-8.218994E0,-8.218994E0,9.141693E-1,-5.7950134E0,1.8911265E-1,-5.445801E0,-1.829398E-1,7.574091E-1,3.7534332E-1,3.5374653E-1,2.3661435E-1,2.7858436E-1,5.136261E-1,5.6548214E-1,8.0685955E-1,-5.434265E-1,8.700619E-1,9.8629093E-1,8.1854296E-1,8.1198645E-1,-2.145783E-1,1E0,2.1996886E-2,9.6264765E-2,-2.4203196E-2,7.237739E-2,1.3854508E-1,8.3425365E-2,-4.5198582E-2,3.406867E-2,9.161922E-2,2.6129127E-1,2.4157397E-1,9.66362E-2,6.01389E-2,1.9219737E-1,-2.4770126E-2,5.1126074E-2,1.7545674E-2,-6.6828445E-2,-3.8076457E-2,5.048565E-2,-3.52824E-2,2.4366109E-2,-2.7299723E-2,8.634342E-2,1.0999222E-1,-2.0896193E-2,1.9370144E-2,1.530944E-1,-6.795887E-2,2.4372295E-2,-1.12929106E-1,-4.806736E-2,3.206314E-2,-3.6137342E-2,-3.916612E-4,4.3750897E-2,-4.280293E-2,-6.539471E-3,-7.935217E-2,1.8396562E-2,-1.1527624E-1,-4.5571547E-2,2.7348292E-3,5.0995268E-2,-2.1242058E-2,-6.332813E-2,1.0974276E-1,5.010882E-2,5.3358763E-2,2.5714576E-2,6.8277693E-3,-2.122145E-2],"split_indices":[0,1,1,1,0,0,0,0,1,1,0,0,1,1,1,1,0,1,0,1,1,0,1,1,0,0,1,0,0,0,0,0,0,0,0,1,0,0,0,0,0,0,0,1,0,0,0,0,1,1,1,1,1,1,1,1,0,1,1,1,1,0,1,0,0,0,0,0,0,0,0,0,0,0,0,0,0,0,0,0,0,0,0,0,0,0,0,0,0,0,0,0,0,0,0,0,0,0,0,0,0,0,0,0,0,0,0,0,0,0,0,0,0,0,0],"split_type":[0,0,0,0,0,0,0,0,0,0,0,0,0,0,0,0,0,0,0,0,0,0,0,0,0,0,0,0,0,0,0,0,0,0,0,0,0,0,0,0,0,0,0,0,0,0,0,0,0,0,0,0,0,0,0,0,0,0,0,0,0,0,0,0,0,0,0,0,0,0,0,0,0,0,0,0,0,0,0,0,0,0,0,0,0,0,0,0,0,0,0,0,0,0,0,0,0,0,0,0,0,0,0,0,0,0,0,0,0,0,0,0,0,0,0],"sum_hessian":[1.899E3,2.14E2,1.685E3,9.5E1,1.19E2,7.18E2,9.67E2,1.6E1,7.9E1,3.1E1,8.8E1,5.57E2,1.61E2,7.51E2,2.16E2,1.4E1,2E0,6.5E1,1.4E1,2.3E1,8E0,8.3E1,5E0,6.5E1,4.92E2,2.7E1,1.34E2,2.11E2,5.4E2,1.78E2,3.8E1,6E0,8E0,1E0,1E0,6.1E1,4E0,1.3E1,1E0,1.3E1,1E1,3E0,5E0,3.1E1,5.2E1,1E0,4E0,1E1,5.5E1,3.6E1,4.56E2,9E0,1.8E1,5.9E1,7.5E1,4.2E1,1.69E2,1.17E2,4.23E2,2.3E1,1.55E2,9E0,2.9E1,1E0,5E0,4E0,4E0,3E0,5.8E1,2E0,2E0,1E1,3E0,6E0,7E0,9E0,1E0,2E0,1E0,3E0,2E0,5E0,2.6E1,2.8E1,2.4E1,2E0,2E0,1.2E1,4.3E1,4E0,3.2E1,1.8E1,4.38E2,1E0,8E0,4E0,1.4E1,5E1,9E0,1.2E1,6.3E1,1.8E1,2.4E1,1.05E2,6.4E1,5.4E1,6.3E1,3.42E2,8.1E1,6E0,1.7E1,1.6E1,1.39E2,2E1,9E0],"tree_param":{"num_deleted":"0","num_feature":"2","num_nodes":"115","size_leaf_vector":"1"}},{"base_weights":[1.5539146E-2,4.6701285E-1,-7.144397E-2,-3.151177E-1,5.280651E-1,1.322491E-1,-2.438797E-1,-1.0616765E0,9.641602E-1,5.5707675E-1,-3.3126637E-1,-5.4726806E-2,2.3148732E-1,-3.9017582E-1,1.816695E-1,2.004598E-2,-1.3337777E0,3.8511726E-1,1.1894955E-1,1.2874947E0,5.1052254E-1,-1.877752E-1,-4.372025E-1,-1.3913314E-1,1.0962913E-2,3.0949858E-1,-2.2369077E-2,-7.1468925E-1,-1.7862087E-1,3.2278964E-1,-4.5263922E-1,-9.205894E-2,1.7818037E-2,-7.954383E-1,-1.7395441E-1,1.1157321E-2,4.3910753E-2,4.8368216E-1,1.4357835E-1,6.545912E-1,3.0418524E-1,-3.9998274E-2,1.5775992E-1,-1.0493875E-2,-6.237321E-2,1.3508775E0,-6.994126E-2,1.9701526E-1,6.0898376E-1,2.5083402E-1,-9.801028E-2,-6.621491E-1,-1.935708E0,5.3006417E-1,-2.515697E-1,6.8051755E-1,2.3955272E-1,-1.7329758E-1,-3.8389046E-2,-1.2746759E-2,-1.062082E-3,-3.5325082E-3,-9.1623634E-2,2.175387E-1,-8.053484E-2,5.3865787E-2,1.500607E-1,1.5487485E-2,9.6833825E-2,4.8569772E-2,-2.4905784E-2,5.826694E-3,2.0625205E-1,-7.0196815E-2,-3.530658E-3,4.011221E-2,-9.712889E-3,-3.8894564E-3,6.363838E-2,7.025697E-2,1.0277162E-2,-3.0455738E-2,-5.26401E-3,-7.081752E-2,6.285568E-2,-5.859548E-2,-2.430466E-1,8.503167E-2,1.4477997E-2,6.495686E-4,-3.4651518E-2,1.1430284E-1,4.6829253E-2,1.7734157E-2,3.351749E-2,6.4042076E-3,-2.1444444E-2],"categories":[],"categories_nodes":[],"categories_segments":[],"categories_sizes":[],"default_left":[0,0,0,0,0,0,0,0,0,0,0,0,0,0,0,0,0,0,0,0,0,0,0,0,0,0,0,0,0,0,0,0,0,0,0,0,0,0,0,0,0,0,0,0,0,0,0,0,0,0,0,0,0,0,0,0,0,0,0,0,0,0,0,0,0,0,0,0,0,0,0,0,0,0,0,0,0,0,0,0,0,0,0,0,0,0,0,0,0,0,0,0,0,0,0,0,0],"id":4,"left_children":[1,3,5,7,9,11,13,15,17,19,21,23,25,27,29,31,33,35,-1,37,39,41,43,-1,45,47,49,51,53,55,57,59,-1,61,-1,-1,-1,63,-1,65,67,-1,69,-1,-1,71,73,75,77,79,81,83,85,87,89,91,93,-1,95,-1,-1,-1,-1,-1,-1,-1,-1,-1,-1,-1,-1,-1,-1,-1,-1,-1,-1,-1,-1,-1,-1,-1,-1,-1,-1,-1,-1,-1,-1,-1,-1,-1,-1,-1,-1,-1,-1],"loss_changes":[7.511874E1,1.4921402E1,5.6371094E1,2.298992E1,7.3396378E0,1.3669263E1,5.4171524E1,4.441807E0,7.162142E-1,8.79583E0,6.991327E-2,2.2492355E1,9.53248E0,4.429046E1,2.0107674E1,8.731367E-2,1.2375793E0,1.0082245E-2,0E0,1.2126789E0,7.6190186E0,5.030522E-1,2.4443144E-1,0E0,2.665363E1,1.2276875E1,2.3804412E0,1.5077164E1,2.0450554E1,5.2860184E0,2.1679039E1,7.2970297E-3,0E0,6.103749E-1,0E0,0E0,0E0,1.0474581E1,0E0,1.4296234E1,1.0758172E1,0E0,5.211996E-1,0E0,0E0,1.2758104E1,5.053706E0,1.6188866E1,1.799942E0,1.5999225E0,8.2736534E-1,1.5059036E1,5.2538643E0,4.442256E0,8.749517E0,2.802044E0,8.328743E-1,0E0,5.90807E-1,0E0,0E0,0E0,0E0,0E0,0E0,0E0,0E0,0E0,0E0,0E0,0E0,0E0,0E0,0E0,0E0,0E0,0E0,0E0,0E0,0E0,0E0,0E0,0E0,0E0,0E0,0E0,0E0,0E0,0E0,0E0,0E0,0E0,0E0,0E0,0E0,0E0,0E0],"parents":[2147483647,0,0,1,1,2,2,3,3,4,4,5,5,6,6,7,7,8,8,9,9,10,10,11,11,12,12,13,13,14,14,15,15,16,16,17,17,19,19,20,20,21,21,22,22,24,24,25,25,26,26,27,27,28,28,29,29,30,30,31,31,33,33,37,37,39,39,40,40,42,42,45,45,46,46,47,47,48,48,49,49,50,50,51,51,52,52,53,53,54,54,55,55,56,56,58,58],"right_children":[2,4,6,8,10,12,14,16,18,20,22,24,26,28,30,32,34,36,-1,38,40,42,44,-1,46,48,50,52,54,56,58,60,-1,62,-1,-1,-1,64,-1,66,68,-1,70,-1,-1,72,74,76,78,80,82,84,86,88,90,92,94,-1,96,-1,-1,-1,-1,-1,-1,-1,-1,-1,-1,-1,-1,-1,-1,-1,-1,-1,-1,-1,-1,-1,-1,-1,-1,-1,-1,-1,-1,-1,-1,-1,-1,-1,-1,-1,-1,-1,-1],"split_conditions":[-4.6220093E0,8.0505085E-1,7.958932E-1,-4.773041E0,9.785423E-1,4.969368E-1,-1.4013672E-1,7.68512E-1,7.7469444E-1,-7.3316345E0,9.797344E-1,-1.2025757E0,5.6985474E-1,8.5456467E-1,9.9821186E-1,-5.1249695E0,-5.1249695E0,7.574091E-1,1.1894955E-1,9.409914E-1,8.933077E-1,-8.218994E0,-8.218994E0,-1.3913314E-1,-7.770996E-1,-1.00616455E-1,5.303154E-1,8.497963E-1,-3.9633179E0,-4.3029785E-3,4.434204E-2,-5.2431946E0,1.7818037E-2,7.9017025E-1,-1.7395441E-1,1.1157321E-2,4.3910753E-2,-8.218994E0,1.4357835E-1,8.873472E-1,-5.5545654E0,-3.9998274E-2,-7.717682E0,-1.0493875E-2,-6.237321E-2,3.7534332E-1,2.3661435E-1,6.936321E-1,5.1541424E-1,8.562927E-1,5.5296516E-1,8.4800816E-1,-2.7930603E0,9.195337E-1,8.9748E-1,8.1854296E-1,9.886751E-1,-1.7329758E-1,1E0,-1.2746759E-2,-1.062082E-3,-3.5325082E-3,-9.1623634E-2,2.175387E-1,-8.053484E-2,5.3865787E-2,1.500607E-1,1.5487485E-2,9.6833825E-2,4.8569772E-2,-2.4905784E-2,5.826694E-3,2.0625205E-1,-7.0196815E-2,-3.530658E-3,4.011221E-2,-9.712889E-3,-3.8894564E-3,6.363838E-2,7.025697E-2,1.0277162E-2,-3.0455738E-2,-5.26401E-3,-7.081752E-2,6.285568E-2,-5.859548E-2,-2.430466E-1,8.503167E-2,1.4477997E-2,6.495686E-4,-3.4651518E-2,1.1430284E-1,4.6829253E-2,1.7734157E-2,3.351749E-2,6.4042076E-3,-2.1444444E-2],"split_indices":[0,1,1,0,1,1,0,1,1,0,1,0,0,1,1,0,0,1,0,1,1,0,0,0,0,0,1,1,0,0,0,0,0,1,0,0,0,0,0,1,0,0,0,0,0,1,1,1,1,0,1,1,0,1,1,1,1,0,1,0,0,0,0,0,0,0,0,0,0,0,0,0,0,0,0,0,0,0,0,0,0,0,0,0,0,0,0,0,0,0,0,0,0,0,0,0,0],"split_type":[0,0,0,0,0,0,0,0,0,0,0,0,0,0,0,0,0,0,0,0,0,0,0,0,0,0,0,0,0,0,0,0,0,0,0,0,0,0,0,0,0,0,0,0,0,0,0,0,0,0,0,0,0,0,0,0,0,0,0,0,0,0,0,0,0,0,0,0,0,0,0,0,0,0,0,0,0,0,0,0,0,0,0,0,0,0,0,0,0,0,0,0,0,0,0,0,0],"sum_hessian":[1.911E3,3.08E2,1.603E3,2.2E1,2.86E2,7.35E2,8.68E2,1.4E1,8E0,2.77E2,9E0,2.55E2,4.8E2,6.46E2,2.22E2,3E0,1.1E1,3E0,5E0,1.5E1,2.62E2,5E0,4E0,1.1E1,2.44E2,3.67E2,1.13E2,2.54E2,3.92E2,1.82E2,4E1,2E0,1E0,6E0,5E0,1E0,2E0,3E0,1.2E1,1.53E2,1.09E2,3E0,2E0,2E0,2E0,1.3E1,2.31E2,2.68E2,9.9E1,2.4E1,8.9E1,2.45E2,9E0,3.6E1,3.56E2,3.3E1,1.49E2,9E0,3.1E1,1E0,1E0,1E0,5E0,1E0,2E0,1.36E2,1.7E1,9E1,1.9E1,1E0,1E0,5E0,8E0,1.1E1,2.2E2,1.58E2,1.1E2,4E0,9.5E1,5E0,1.9E1,1.5E1,7.4E1,2.37E2,8E0,3E0,6E0,1.9E1,1.7E1,9.6E1,2.6E2,9E0,2.4E1,9.2E1,5.7E1,2E1,1.1E1],"tree_param":{"num_deleted":"0","num_feature":"2","num_nodes":"97","size_leaf_vector":"1"}},{"base_weights":[-4.1621374E-3,3.5161588E-1,-8.806489E-2,-3.251208E-1,4.167656E-1,1.2670225E-1,-2.6814425E-1,-9.818367E-1,3.929599E-1,3.387511E-1,6.614689E-1,-9.1380425E-2,2.4768387E-1,-4.3507212E-1,1.3885939E-1,1.9043684E-2,-1.1976713E-1,8.2050705E-1,-3.074425E-2,4.3299782E-1,-2.1550696E-1,7.9297686E-1,-5.7068907E-2,-1.280657E0,-1.4754231E-2,-9.229345E-1,2.684521E-1,-7.855896E-1,-2.8994337E-1,3.0749372E-1,-5.637482E-1,-8.745599E-2,1.6927136E-2,1.0599454E-2,9.0743825E-2,5.915902E-1,-2.9306698E-1,3.5642818E-1,1.3582702E0,1.5740658E-1,-1.0055274E-1,1.3076576E0,5.727287E-1,-1.14517935E-1,3.1615973E-2,-8.309366E-1,-1.5702955E0,1.0355134E0,-6.6264E-2,3.3675637E-2,-1.3989575E0,7.3122495E-1,1.9608453E-1,-9.152552E-1,-4.8769832E-1,-3.381484E-1,1.0514358E-1,8.520879E-1,2.5737706E-1,-1.6106204E0,-7.081393E-2,-1.210942E-2,-1.008978E-3,7.0999555E-2,1.7738981E-2,-5.174246E-2,5.265394E-2,4.7749605E-2,-2.903164E-2,9.721039E-2,2.2737432E-1,-7.940345E-2,3.1603083E-2,1.7973712E-1,8.722105E-2,1.6685575E-2,8.106907E-2,1.973843E-3,-5.2386653E-2,-9.0803266E-2,-1.4563218E-2,-4.2209093E-2,-1.674026E-1,1.7354397E-2,1.5032753E-1,-6.33888E-2,-3.114431E-3,-6.71965E-3,-2.048039E-1,1.1319875E-1,3.3273023E-2,1.4419915E-2,5.366818E-2,-1.8478976E-1,-8.576348E-2,1.8729886E-2,-8.028943E-2,-2.4449958E-2,-1.7444652E-1,4.9630057E-2,-2.5852865E-1,1.22976184E-1,4.217014E-2,5.8137424E-2,2.2222262E-2,3.454095E-2,-1.7750089E-1,1.2982937E-3,-1.722357E-2],"categories":[],"categories_nodes":[],"categories_segments":[],"categories_sizes":[],"default_left":[0,0,0,0,0,0,0,0,0,0,0,0,0,0,0,0,0,0,0,0,0,0,0,0,0,0,0,0,0,0,0,0,0,0,0,0,0,0,0,0,0,0,0,0,0,0,0,0,0,0,0,0,0,0,0,0,0,0,0,0,0,0,0,0,0,0,0,0,0,0,0,0,0,0,0,0,0,0,0,0,0,0,0,0,0,0,0,0,0,0,0,0,0,0,0,0,0,0,0,0,0,0,0,0,0,0,0,0,0],"id":5,"left_children":[1,3,5,7,9,11,13,15,17,19,21,23,25,27,29,31,-1,33,35,37,39,41,43,45,47,49,51,53,55,57,59,61,-1,-1,-1,63,65,67,69,71,-1,73,75,77,-1,79,81,83,85,-1,87,89,91,93,95,97,99,101,103,105,107,-1,-1,-1,-1,-1,-1,-1,-1,-1,-1,-1,-1,-1,-1,-1,-1,-1,-1,-1,-1,-1,-1,-1,-1,-1,-1,-1,-1,-1,-1,-1,-1,-1,-1,-1,-1,-1,-1,-1,-1,-1,-1,-1,-1,-1,-1,-1,-1],"loss_changes":[5.6001125E1,1.591943E1,5.874282E1,1.5476223E1,6.0184937E0,1.8306742E1,5.6179058E1,3.6952286E0,2.9236817E0,1.3152561E1,7.415741E0,2.2581284E1,1.109078E1,2.9582138E1,2.872794E1,7.880058E-2,0E0,4.0072393E-1,1.6426479E0,1.46772995E1,1.1058821E1,6.732662E0,3.1494707E-1,6.490288E-1,1.2727794E1,5.2682433E0,1.4558617E1,6.1587143E0,7.9583397E0,5.1028748E0,2.4139788E1,6.58557E-3,0E0,0E0,0E0,2.1184683E-2,1.559639E0,1.5720318E1,3.4460812E0,4.1749024E0,0E0,2.4839554E0,4.500684E0,6.6983217E-1,0E0,2.904353E-1,2.4624062E-1,4.1742773E0,4.445649E0,0E0,5.0489063E0,9.045759E0,6.65565E0,4.756401E0,1.1639228E1,4.843414E1,4.969258E1,2.08214E0,1.9209948E0,5.4363365E0,2.8269744E-1,0E0,0E0,0E0,0E0,0E0,0E0,0E0,0E0,0E0,0E0,0E0,0E0,0E0,0E0,0E0,0E0,0E0,0E0,0E0,0E0,0E0,0E0,0E0,0E0,0E0,0E0,0E0,0E0,0E0,0E0,0E0,0E0,0E0,0E0,0E0,0E0,0E0,0E0,0E0,0E0,0E0,0E0,0E0,0E0,0E0,0E0,0E0,0E0],"parents":[2147483647,0,0,1,1,2,2,3,3,4,4,5,5,6,6,7,7,8,8,9,9,10,10,11,11,12,12,13,13,14,14,15,15,17,17,18,18,19,19,20,20,21,21,22,22,23,23,24,24,25,25,26,26,27,27,28,28,29,29,30,30,31,31,35,35,36,36,37,37,38,38,39,39,41,41,42,42,43,43,45,45,46,46,47,47,48,48,50,50,51,51,52,52,53,53,54,54,55,55,56,56,57,57,58,58,59,59,60,60],"right_children":[2,4,6,8,10,12,14,16,18,20,22,24,26,28,30,32,-1,34,36,38,40,42,44,46,48,50,52,54,56,58,60,62,-1,-1,-1,64,66,68,70,72,-1,74,76,78,-1,80,82,84,86,-1,88,90,92,94,96,98,100,102,104,106,108,-1,-1,-1,-1,-1,-1,-1,-1,-1,-1,-1,-1,-1,-1,-1,-1,-1,-1,-1,-1,-1,-1,-1,-1,-1,-1,-1,-1,-1,-1,-1,-1,-1,-1,-1,-1,-1,-1,-1,-1,-1,-1,-1,-1,-1,-1,-1,-1],"split_conditions":[-4.3677063E0,8.0505085E-1,7.9017025E-1,-4.773041E0,9.463558E-1,4.969368E-1,-1.4013672E-1,7.68512E-1,-4.6220093E0,9.320507E-1,9.785423E-1,-1.2025757E0,-3.4956055E0,8.3349156E-1,9.9821186E-1,-5.1249695E0,-1.1976713E-1,7.574091E-1,7.770316E-1,9.141693E-1,-6.245636E0,-6.8696594E0,-5.0843506E0,4.586507E-1,-8.323364E-1,7.574091E-1,-8.034973E-1,-5.434265E-1,9.9940395E-1,-7.3272705E-2,4.434204E-2,-5.2431946E0,1.6927136E-2,1.0599454E-2,9.0743825E-2,-4.5771484E0,-4.4297485E0,8.933077E-1,-5.607025E0,-7.107605E0,-1.0055274E-1,9.666214E-1,-5.680542E0,-7.3316345E0,3.1615973E-2,-1.3387146E0,-1.9576111E0,3.7534332E-1,2.3661435E-1,3.3675637E-2,-3.764038E0,7.3773956E-1,7.6255155E-1,7.958932E-1,8.1198645E-1,9.8629093E-1,-3.6483765E-1,8.341622E-1,7.982774E-1,-1.00616455E-1,1E0,-1.210942E-2,-1.008978E-3,7.0999555E-2,1.7738981E-2,-5.174246E-2,5.265394E-2,4.7749605E-2,-2.903164E-2,9.721039E-2,2.2737432E-1,-7.940345E-2,3.1603083E-2,1.7973712E-1,8.722105E-2,1.6685575E-2,8.106907E-2,1.973843E-3,-5.2386653E-2,-9.0803266E-2,-1.4563218E-2,-4.2209093E-2,-1.674026E-1,1.7354397E-2,1.5032753E-1,-6.33888E-2,-3.114431E-3,-6.71965E-3,-2.048039E-1,1.1319875E-1,3.3273023E-2,1.4419915E-2,5.366818E-2,-1.8478976E-1,-8.576348E-2,1.8729886E-2,-8.028943E-2,-2.4449958E-2,-1.7444652E-1,4.9630057E-2,-2.5852865E-1,1.22976184E-1,4.217014E-2,5.8137424E-2,2.2222262E-2,3.454095E-2,-1.7750089E-1,1.2982937E-3,-1.722357E-2],"split_indices":[0,1,1,0,1,1,0,1,0,1,1,0,0,1,1,0,0,1,1,1,0,0,0,1,0,1,0,0,1,0,0,0,0,0,0,0,0,1,0,0,0,1,0,0,0,0,0,1,1,0,0,1,1,1,1,1,0,1,1,0,1,0,0,0,0,0,0,0,0,0,0,0,0,0,0,0,0,0,0,0,0,0,0,0,0,0,0,0,0,0,0,0,0,0,0,0,0,0,0,0,0,0,0,0,0,0,0,0,0],"split_type":[0,0,0,0,0,0,0,0,0,0,0,0,0,0,0,0,0,0,0,0,0,0,0,0,0,0,0,0,0,0,0,0,0,0,0,0,0,0,0,0,0,0,0,0,0,0,0,0,0,0,0,0,0,0,0,0,0,0,0,0,0,0,0,0,0,0,0,0,0,0,0,0,0,0,0,0,0,0,0,0,0,0,0,0,0,0,0,0,0,0,0,0,0,0,0,0,0,0,0,0,0,0,0,0,0,0,0,0,0],"sum_hessian":[1.874E3,3.57E2,1.517E3,3.1E1,3.26E2,6.92E2,8.25E2,1.6E1,1.5E1,2.49E2,7.7E1,2.47E2,4.45E2,5.85E2,2.4E2,3E0,1.3E1,7E0,8E0,2.13E2,3.6E1,6.5E1,1.2E1,1.4E1,2.33E2,7E0,4.38E2,1.7E2,4.15E2,1.94E2,4.6E1,2E0,1E0,1E0,6E0,2E0,6E0,1.98E2,1.5E1,2.5E1,1.1E1,1.8E1,4.7E1,1.1E1,1E0,7E0,7E0,1E1,2.23E2,2E0,5E0,5.8E1,3.8E2,1.17E2,5.3E1,3.7E2,4.5E1,1.5E1,1.79E2,1.4E1,3.2E1,1E0,1E0,1E0,1E0,5E0,1E0,1.67E2,3.1E1,1.2E1,3E0,3E0,2.2E1,7E0,1.1E1,1.8E1,2.9E1,9E0,2E0,6E0,1E0,1E0,6E0,4E0,6E0,1.2E1,2.11E2,2E0,3E0,2.8E1,3E1,3.31E2,4.9E1,5E0,1.12E2,1.7E1,3.6E1,3.48E2,2.2E1,4E1,5E0,7E0,8E0,1.6E1,1.63E2,1E0,1.3E1,1.8E1,1.4E1],"tree_param":{"num_deleted":"0","num_feature":"2","num_nodes":"109","size_leaf_vector":"1"}},{"base_weights":[-6.1802724E-3,3.6954752E-1,-5.9691362E-2,-9.592933E-1,4.443501E-1,1.13086194E-1,-1.9548687E-1,-8.308319E-2,-1.1110512E0,2.6663488E-1,7.716602E-1,-9.139212E-2,1.9987951E-1,-2.7681708E-1,1.6227432E-1,-1.150395E-2,-9.585291E-4,-1.2837718E-1,-2.2253878E-2,5.158484E-1,1.5966319E-1,6.685046E-1,1.2919039E0,-1.3061589E0,-2.1207463E-2,2.524183E-1,-6.269632E-2,-2.2196098E-1,-7.060686E-1,1.8746676E-1,-1.6414489E-1,3.2569802E-1,7.724157E-1,3.701061E-1,-1.5237325E-1,7.9952455E-1,3.140805E-1,1.4213119E0,-6.5792473E-3,-5.0733186E-2,-1.4151911E-1,1.2594148E0,-9.871382E-2,3.256153E-1,1.2640582E-1,-2.575245E-1,-3.9707087E-2,-2.8531805E-1,7.693507E-1,-5.7575874E-2,-2.0473185E0,1.1874128E-1,2.6758975E-1,1.5412525E-3,-1.8039238E-1,9.583612E-3,6.513303E-2,1.1490847E-1,4.8832413E-2,-3.5168767E-2,4.5225438E-2,1.7375724E-2,-3.941375E-2,8.37973E-2,-5.230015E-2,3.7376254E-3,5.3707708E-2,6.0835045E-2,1.7989542E-1,1.5966047E-2,1.7893344E-1,-1.5259778E-1,-8.372275E-3,9.386078E-2,2.4574593E-2,-9.623153E-3,4.8931282E-2,8.528809E-3,-3.1103706E-2,2.024857E-2,-8.610708E-3,-4.45644E-2,-2.4604711E-3,1.1664708E-1,4.6853505E-2,-1.0913862E-1,4.607687E-2,-2.7296785E-1,-1.7802978E-1,2.1446174E-2,7.583345E-3,4.4788506E-2,1.1154996E-2,-1.9844541E-2,9.095386E-4],"categories":[],"categories_nodes":[],"categories_segments":[],"categories_sizes":[],"default_left":[0,0,0,0,0,0,0,0,0,0,0,0,0,0,0,0,0,0,0,0,0,0,0,0,0,0,0,0,0,0,0,0,0,0,0,0,0,0,0,0,0,0,0,0,0,0,0,0,0,0,0,0,0,0,0,0,0,0,0,0,0,0,0,0,0,0,0,0,0,0,0,0,0,0,0,0,0,0,0,0,0,0,0,0,0,0,0,0,0,0,0,0,0,0,0],"id":6,"left_children":[1,3,5,7,9,11,13,15,17,19,21,23,25,27,29,-1,-1,-1,-1,31,33,35,37,39,41,43,45,47,49,51,53,55,57,59,61,63,65,67,-1,-1,-1,69,71,73,75,77,79,81,83,85,87,89,91,-1,93,-1,-1,-1,-1,-1,-1,-1,-1,-1,-1,-1,-1,-1,-1,-1,-1,-1,-1,-1,-1,-1,-1,-1,-1,-1,-1,-1,-1,-1,-1,-1,-1,-1,-1,-1,-1,-1,-1,-1,-1],"loss_changes":[3.8383553E1,2.4083633E1,3.9227802E1,1.6363249E0,1.2940216E1,1.3080318E1,2.7279526E1,5.943477E-3,1.4024191E0,3.8631392E0,3.3759727E0,1.8729057E1,7.148056E0,1.7809689E1,1.4616256E0,0E0,0E0,0E0,0E0,1.8950262E0,6.9513083E0,2.906578E0,2.2018757E0,3.2720375E-1,2.0868904E1,3.934269E0,3.7944323E-1,4.280239E1,7.468413E1,8.602772E-1,4.070595E-2,1.9585407E0,1.3650265E0,3.8945808E0,3.458892E0,2.9298668E0,1.2140082E0,2.2826977E0,0E0,0E0,0E0,6.7076893E0,4.108693E0,1.3086279E1,1.297455E1,1.9163084E-1,9.0521705E-1,2.665686E1,4.351324E0,3.2119205E1,2.4208069E-1,3.4927344E-1,2.031898E0,0E0,4.2854846E-2,0E0,0E0,0E0,0E0,0E0,0E0,0E0,0E0,0E0,0E0,0E0,0E0,0E0,0E0,0E0,0E0,0E0,0E0,0E0,0E0,0E0,0E0,0E0,0E0,0E0,0E0,0E0,0E0,0E0,0E0,0E0,0E0,0E0,0E0,0E0,0E0,0E0,0E0,0E0,0E0],"parents":[2147483647,0,0,1,1,2,2,3,3,4,4,5,5,6,6,7,7,8,8,9,9,10,10,11,11,12,12,13,13,14,14,19,19,20,20,21,21,22,22,23,23,24,24,25,25,26,26,27,27,28,28,29,29,30,30,31,31,32,32,33,33,34,34,35,35,36,36,37,37,41,41,42,42,43,43,44,44,45,45,46,46,47,47,48,48,49,49,50,50,51,51,52,52,54,54],"right_children":[2,4,6,8,10,12,14,16,18,20,22,24,26,28,30,-1,-1,-1,-1,32,34,36,38,40,42,44,46,48,50,52,54,56,58,60,62,64,66,68,-1,-1,-1,70,72,74,76,78,80,82,84,86,88,90,92,-1,94,-1,-1,-1,-1,-1,-1,-1,-1,-1,-1,-1,-1,-1,-1,-1,-1,-1,-1,-1,-1,-1,-1,-1,-1,-1,-1,-1,-1,-1,-1,-1,-1,-1,-1,-1,-1,-1,-1,-1,-1],"split_conditions":[-5.005188E0,7.931719E-1,7.958932E-1,7.68512E-1,-5.761078E0,4.891882E-1,4.2419434E-3,-5.2431946E0,7.911618E-1,8.905925E-1,-5.1917725E0,-1.2025757E0,8.562927E-1,9.8629093E-1,1E0,-1.150395E-2,-9.585291E-4,-1.2837718E-1,-2.2253878E-2,8.662932E-1,-6.314514E0,-5.3717957E0,9.767542E-1,-1.886261E0,-8.034973E-1,7.1985817E-1,5.100498E-1,9.666214E-1,-7.040405E-1,9.886751E-1,6.704712E-2,-6.245636E0,8.766265E-1,9.111891E-1,9.320507E-1,9.785423E-1,-5.3089294E0,8.643665E-1,-6.5792473E-3,-5.0733186E-2,-1.4151911E-1,3.7534332E-1,-7.770996E-1,-8.034973E-1,-2.7041626E-1,9.20105E-1,5.1660633E-1,-5.3427124E-1,9.767542E-1,1E0,9.988079E-1,8.352988E-1,9.922514E-1,1.5412525E-3,5.529785E-1,9.583612E-3,6.513303E-2,1.1490847E-1,4.8832413E-2,-3.5168767E-2,4.5225438E-2,1.7375724E-2,-3.941375E-2,8.37973E-2,-5.230015E-2,3.7376254E-3,5.3707708E-2,6.0835045E-2,1.7989542E-1,1.5966047E-2,1.7893344E-1,-1.5259778E-1,-8.372275E-3,9.386078E-2,2.4574593E-2,-9.623153E-3,4.8931282E-2,8.528809E-3,-3.1103706E-2,2.024857E-2,-8.610708E-3,-4.45644E-2,-2.4604711E-3,1.1664708E-1,4.6853505E-2,-1.0913862E-1,4.607687E-2,-2.7296785E-1,-1.7802978E-1,2.1446174E-2,7.583345E-3,4.4788506E-2,1.1154996E-2,-1.9844541E-2,9.095386E-4],"split_indices":[0,1,1,1,0,1,0,0,1,1,0,0,0,1,1,0,0,0,0,1,0,0,1,0,0,1,1,1,0,1,0,0,1,1,1,1,0,1,0,0,0,1,0,0,0,0,1,0,1,1,1,1,1,0,0,0,0,0,0,0,0,0,0,0,0,0,0,0,0,0,0,0,0,0,0,0,0,0,0,0,0,0,0,0,0,0,0,0,0,0,0,0,0,0,0],"split_type":[0,0,0,0,0,0,0,0,0,0,0,0,0,0,0,0,0,0,0,0,0,0,0,0,0,0,0,0,0,0,0,0,0,0,0,0,0,0,0,0,0,0,0,0,0,0,0,0,0,0,0,0,0,0,0,0,0,0,0,0,0,0,0,0,0,0,0,0,0,0,0,0,0,0,0,0,0,0,0,0,0,0,0,0,0,0,0,0,0,0,0,0,0,0,0],"sum_hessian":[1.907E3,2.37E2,1.67E3,1.2E1,2.25E2,7.35E2,9.35E2,2E0,1E1,1.47E2,7.8E1,2.19E2,5.16E2,7.62E2,1.73E2,1E0,1E0,8E0,2E0,4.3E1,1.04E2,6.7E1,1.1E1,1.1E1,2.08E2,4.3E2,8.6E1,6.77E2,8.5E1,1.61E2,1.2E1,2.6E1,1.7E1,6.2E1,4.2E1,4.8E1,1.9E1,1E1,1E0,2E0,9E0,1.1E1,1.97E2,2.71E2,1.59E2,8E0,7.8E1,6.37E2,4E1,5.8E1,2.7E1,8.8E1,7.3E1,1E0,1.1E1,1.6E1,1E1,6E0,1.1E1,6E0,5.6E1,1.8E1,2.4E1,4.7E1,1E0,9E0,1E1,4E0,6E0,4E0,7E0,1E0,1.96E2,3E1,2.41E2,9.9E1,6E1,1E0,7E0,1.2E1,6.6E1,3.94E2,2.43E2,1.6E1,2.4E1,1.9E1,3.9E1,5E0,2.2E1,2.6E1,6.2E1,3.3E1,4E1,1E1,1E0],"tree_param":{"num_deleted":"0","num_feature":"2","num_nodes":"95","size_leaf_vector":"1"}},{"base_weights":[-1.273193E-2,3.4898838E-1,-5.6372773E-2,6.1907643E-1,1.8116485E-1,9.505904E-2,-1.7076057E-1,4.3712598E-1,8.3633363E-1,-2.8883573E-1,2.8892064E-1,-8.090605E-1,1.1672567E-1,-3.8819915E-1,-4.41187E-2,1.497056E-1,5.172583E-1,6.326577E-1,2.2057386E-1,2.44234E-3,-4.6376538E-1,1.0069598E0,1.5508488E-1,2.3612913E-2,-9.8917717E-1,1.7809983E-1,-7.1594894E-2,-5.1235116E-1,2.34932E-1,4.2919185E-2,-3.556702E-1,6.3608956E-1,-2.1909803E-1,1.5888356E-1,4.006336E-1,8.181739E-1,4.317518E-1,-1.7413846E-1,7.958347E-2,-6.881894E-1,-1.8137074E-1,7.281775E-1,1.6612626E0,-2.539708E-1,3.820094E-1,-7.892904E-2,1.6561938E-2,-1.3322E-1,-5.65385E-1,8.615681E-2,3.3655438E-1,-2.4311775E-1,-2.5088077E-2,-6.257167E-2,-6.328003E-1,6.191865E-1,1.5338247E-1,-7.220462E-2,4.5717174E-1,1.455742E-1,-6.6308236E-1,1.533709E-2,7.184265E-2,-3.9233156E-2,4.1015152E-2,8.309991E-3,5.0301563E-2,5.058905E-2,9.2372656E-2,-4.3426357E-2,7.3162295E-2,-7.4292473E-3,-2.803728E-2,-4.065629E-2,-8.681751E-2,3.2148187E-3,-4.029267E-2,1.7093068E-1,3.9439883E-2,2.3368447E-1,-1.827418E-2,1.1728373E-2,-9.733917E-2,1.158368E-1,1.2630417E-2,-1.0928753E-2,-9.106027E-4,3.0213568E-2,-9.0491444E-2,2.9113993E-2,-3.5505313E-3,-4.621745E-2,4.304787E-2,3.7830383E-2,-3.0907566E-2,8.9094965E-3,-1.0182497E-2,-5.8623403E-2,3.5561584E-3,-8.6787626E-2,-3.269898E-2,1.0669526E-1,1.4285037E-2,-3.72207E-2,1.8303635E-2,1.1077125E-2,-2.4153352E-2,9.433941E-2,2.9751692E-2,-8.6374894E-2,4.447318E-2,-1.473367E-1,-2.8330644E-3],"categories":[],"categories_nodes":[],"categories_segments":[],"categories_sizes":[],"default_left":[0,0,0,0,0,0,0,0,0,0,0,0,0,0,0,0,0,0,0,0,0,0,0,0,0,0,0,0,0,0,0,0,0,0,0,0,0,0,0,0,0,0,0,0,0,0,0,0,0,0,0,0,0,0,0,0,0,0,0,0,0,0,0,0,0,0,0,0,0,0,0,0,0,0,0,0,0,0,0,0,0,0,0,0,0,0,0,0,0,0,0,0,0,0,0,0,0,0,0,0,0,0,0,0,0,0,0,0,0,0,0,0,0],"id":7,"left_children":[1,3,5,7,9,11,13,15,17,19,21,23,25,27,29,31,33,35,-1,37,39,41,43,45,47,49,51,53,55,57,59,61,63,-1,65,67,69,71,-1,73,75,77,79,81,83,85,-1,-1,87,89,91,93,95,97,99,101,103,105,107,109,111,-1,-1,-1,-1,-1,-1,-1,-1,-1,-1,-1,-1,-1,-1,-1,-1,-1,-1,-1,-1,-1,-1,-1,-1,-1,-1,-1,-1,-1,-1,-1,-1,-1,-1,-1,-1,-1,-1,-1,-1,-1,-1,-1,-1,-1,-1,-1,-1,-1,-1,-1,-1],"loss_changes":[2.9618013E1,9.043924E0,2.9013182E1,2.6782303E0,6.4647574E0,1.4218267E1,2.6253008E1,9.35956E-1,8.0876255E0,1.2240086E0,9.742066E0,2.5729895E0,8.161152E0,2.7274776E1,1.63938E1,2.1125479E0,3.6125193E0,8.021622E-1,0E0,1.5395639E0,8.2582474E-1,1.7088356E0,8.265598E0,7.131865E-2,1.2819805E0,7.7215996E0,1.3818952E0,1.5833847E1,1.7538388E0,2.2590538E1,2.0436222E1,8.854222E-2,9.239651E-1,0E0,9.985118E-1,2.713108E-2,4.732498E0,7.4634045E-2,0E0,5.2542448E-2,3.914045E-1,3.5830927E0,5.410144E0,8.660988E0,1.1169275E1,5.363986E-3,0E0,0E0,2.6297977E0,8.439611E0,1.4827864E1,1.6334682E0,1.2182353E0,3.2583346E0,1.6322502E1,1.9804573E0,8.474157E-1,1.1521486E1,7.714981E0,1.5783417E1,4.213328E1,0E0,0E0,0E0,0E0,0E0,0E0,0E0,0E0,0E0,0E0,0E0,0E0,0E0,0E0,0E0,0E0,0E0,0E0,0E0,0E0,0E0,0E0,0E0,0E0,0E0,0E0,0E0,0E0,0E0,0E0,0E0,0E0,0E0,0E0,0E0,0E0,0E0,0E0,0E0,0E0,0E0,0E0,0E0,0E0,0E0,0E0,0E0,0E0,0E0,0E0,0E0,0E0],"parents":[2147483647,0,0,1,1,2,2,3,3,4,4,5,5,6,6,7,7,8,8,9,9,10,10,11,11,12,12,13,13,14,14,15,15,16,16,17,17,19,19,20,20,21,21,22,22,23,23,24,24,25,25,26,26,27,27,28,28,29,29,30,30,31,31,32,32,34,34,35,35,36,36,37,37,39,39,40,40,41,41,42,42,43,43,44,44,45,45,48,48,49,49,50,50,51,51,52,52,53,53,54,54,55,55,56,56,57,57,58,58,59,59,60,60],"right_children":[2,4,6,8,10,12,14,16,18,20,22,24,26,28,30,32,34,36,-1,38,40,42,44,46,48,50,52,54,56,58,60,62,64,-1,66,68,70,72,-1,74,76,78,80,82,84,86,-1,-1,88,90,92,94,96,98,100,102,104,106,108,110,112,-1,-1,-1,-1,-1,-1,-1,-1,-1,-1,-1,-1,-1,-1,-1,-1,-1,-1,-1,-1,-1,-1,-1,-1,-1,-1,-1,-1,-1,-1,-1,-1,-1,-1,-1,-1,-1,-1,-1,-1,-1,-1,-1,-1,-1,-1,-1,-1,-1,-1,-1,-1],"split_conditions":[-5.3717957E0,8.933077E-1,7.958932E-1,-5.7950134E0,9.153614E-1,-4.773041E0,8.5456467E-1,8.3468366E-1,8.873472E-1,9.0701675E-1,9.320507E-1,7.68512E-1,5.2615356E-1,-1.5255737E-1,9.952316E-1,8.3349156E-1,8.432398E-1,8.5933304E-1,2.2057386E-1,9.040365E-1,9.0940094E-1,-5.761078E0,9.445677E-1,-5.1249695E0,7.8482723E-1,-1.7785645E-1,4.6653843E-1,-4.103668E0,-5.291748E-2,9.624491E-1,-1.0244141E0,-6.6310425E0,-5.9933777E0,1.5888356E-1,-6.6310425E0,8.3468366E-1,8.700619E-1,-5.680542E0,7.958347E-2,-6.4908752E0,9.111891E-1,-6.4519043E0,9.195337E-1,-6.245636E0,9.511242E-1,-5.2431946E0,1.6561938E-2,-1.3322E-1,7.9017025E-1,-6.442871E-1,4.0752983E-1,2.7858436E-1,5.225668E-1,8.0685955E-1,-6.290283E-1,8.1854296E-1,8.087349E-1,8.9748E-1,9.767542E-1,9.9940395E-1,-4.3029785E-3,1.533709E-2,7.184265E-2,-3.9233156E-2,4.1015152E-2,8.309991E-3,5.0301563E-2,5.058905E-2,9.2372656E-2,-4.3426357E-2,7.3162295E-2,-7.4292473E-3,-2.803728E-2,-4.065629E-2,-8.681751E-2,3.2148187E-3,-4.029267E-2,1.7093068E-1,3.9439883E-2,2.3368447E-1,-1.827418E-2,1.1728373E-2,-9.733917E-2,1.158368E-1,1.2630417E-2,-1.0928753E-2,-9.106027E-4,3.0213568E-2,-9.0491444E-2,2.9113993E-2,-3.5505313E-3,-4.621745E-2,4.304787E-2,3.7830383E-2,-3.0907566E-2,8.9094965E-3,-1.0182497E-2,-5.8623403E-2,3.5561584E-3,-8.6787626E-2,-3.269898E-2,1.0669526E-1,1.4285037E-2,-3.72207E-2,1.8303635E-2,1.1077125E-2,-2.4153352E-2,9.433941E-2,2.9751692E-2,-8.6374894E-2,4.447318E-2,-1.473367E-1,-2.8330644E-3],"split_indices":[0,1,1,0,1,0,1,1,1,1,1,1,0,0,1,1,1,1,0,1,1,0,1,0,1,0,1,0,0,1,0,0,0,0,0,1,1,0,0,0,1,0,1,0,1,0,0,0,1,0,1,1,1,1,0,1,1,1,1,1,0,0,0,0,0,0,0,0,0,0,0,0,0,0,0,0,0,0,0,0,0,0,0,0,0,0,0,0,0,0,0,0,0,0,0,0,0,0,0,0,0,0,0,0,0,0,0,0,0,0,0,0,0],"split_type":[0,0,0,0,0,0,0,0,0,0,0,0,0,0,0,0,0,0,0,0,0,0,0,0,0,0,0,0,0,0,0,0,0,0,0,0,0,0,0,0,0,0,0,0,0,0,0,0,0,0,0,0,0,0,0,0,0,0,0,0,0,0,0,0,0,0,0,0,0,0,0,0,0,0,0,0,0,0,0,0,0,0,0,0,0,0,0,0,0,0,0,0,0,0,0,0,0,0,0,0,0,0,0,0,0,0,0,0,0,0,0,0,0],"sum_hessian":[1.874E3,2.01E2,1.673E3,7.6E1,1.25E2,7.2E2,9.53E2,4.3E1,3.3E1,2.3E1,1.02E2,1.6E1,7.04E2,3.5E2,6.03E2,1E1,3.3E1,3E1,3E0,9E0,1.4E1,1.5E1,8.7E1,3E0,1.3E1,5.31E2,1.73E2,2.92E2,5.8E1,4.72E2,1.31E2,4E0,6E0,2E0,3.1E1,1.4E1,1.6E1,8E0,1E0,7E0,7E0,1.2E1,3E0,3.1E1,5.6E1,2E0,1E0,6E0,7E0,3.37E2,1.94E2,3.6E1,1.37E2,6.2E1,2.3E2,9E0,4.9E1,3.7E2,1.02E2,5E1,8.1E1,1E0,3E0,5E0,1E0,8E0,2.3E1,5E0,9E0,4E0,1.2E1,5E0,3E0,4E0,3E0,4E0,3E0,2E0,1E1,2E0,1E0,2.1E1,1E1,1.3E1,4.3E1,1E0,1E0,2E0,5E0,1.25E2,2.12E2,2E1,1.74E2,3E0,3.3E1,5.5E1,8.2E1,9E0,5.3E1,1.29E2,1.01E2,4E0,5E0,2E0,4.7E1,1.78E2,1.92E2,2.4E1,7.8E1,1.1E1,3.9E1,3.5E1,4.6E1],"tree_param":{"num_deleted":"0","num_feature":"2","num_nodes":"113","size_leaf_vector":"1"}},{"base_weights":[7.0287655E-3,3.7819728E-1,-6.28317E-2,-4.6858624E-1,4.4035533E-1,9.721342E-2,-1.8635228E-1,-7.4135965E-1,8.760406E-2,7.405056E-1,3.8871065E-1,-7.053046E-1,1.08770214E-1,-2.7808914E-1,1.1267155E-1,2.2432264E-2,-8.956135E-1,9.167015E-1,-7.886571E-2,5.6930214E-1,1.6104425E-1,-8.3547217E-1,2.3310145E-2,1.6196659E-1,-6.570224E-2,-5.7562715E-1,-1.2676403E-1,2.1846443E-1,-3.4769952E-1,-7.4982576E-2,1.573384E-2,-1.2919624E-1,-5.682428E-1,2.5752553E-1,1.3322896E0,-2.2846353E-1,4.8415955E-2,4.0497556E-1,8.552836E-1,3.3558104E-2,6.0584754E-1,-3.3848338E-2,-1.0275526E-1,8.674624E-2,2.7839264E-1,-2.3267001E-1,-2.8801722E-2,-7.5909716E-1,-3.4251887E-1,1.9648361E-1,-1.9158943E-1,9.3203294E-1,1.9606026E-1,-1.4732394E0,-2.0275813E-2,-1.0382314E-2,-8.650726E-4,2.8199328E-2,-8.16051E-2,1.9099341E-1,-1.6500823E-3,1.628003E-1,9.42342E-2,-4.148563E-2,1.504511E-3,6.397839E-2,2.0133704E-3,6.892306E-2,1.1746516E-1,2.3675634E-2,-1.2056216E-2,-1.03944E-1,8.026665E-2,5.1712167E-2,3.563682E-3,-3.1437244E-2,3.473788E-2,3.1117374E-2,-2.8447969E-2,8.301157E-3,-1.0870868E-2,-3.8393244E-2,-9.4878316E-2,-8.5383635E-3,-5.6139585E-2,1.4777423E-1,1.4261349E-2,-5.4778464E-2,-1.4479245E-2,1.3722238E-1,1.8116454E-2,3.770212E-2,1.733408E-2,-1.8199378E-1,-8.31893E-2,6.6391528E-3,-1.364475E-2],"categories":[],"categories_nodes":[],"categories_segments":[],"categories_sizes":[],"default_left":[0,0,0,0,0,0,0,0,0,0,0,0,0,0,0,0,0,0,0,0,0,0,0,0,0,0,0,0,0,0,0,0,0,0,0,0,0,0,0,0,0,0,0,0,0,0,0,0,0,0,0,0,0,0,0,0,0,0,0,0,0,0,0,0,0,0,0,0,0,0,0,0,0,0,0,0,0,0,0,0,0,0,0,0,0,0,0,0,0,0,0,0,0,0,0,0,0],"id":8,"left_children":[1,3,5,7,9,11,13,15,-1,17,19,21,23,25,27,29,31,33,35,37,39,41,-1,43,45,47,49,51,53,55,-1,-1,57,59,61,63,-1,65,67,69,71,-1,-1,73,75,77,79,81,83,85,87,89,91,93,95,-1,-1,-1,-1,-1,-1,-1,-1,-1,-1,-1,-1,-1,-1,-1,-1,-1,-1,-1,-1,-1,-1,-1,-1,-1,-1,-1,-1,-1,-1,-1,-1,-1,-1,-1,-1,-1,-1,-1,-1,-1,-1],"loss_changes":[4.9109257E1,1.5996674E1,3.1529688E1,8.351809E0,4.0524826E0,6.5225234E0,2.4719692E1,2.1408129E0,0E0,5.84709E0,9.8169365E0,1.4162498E0,6.377616E0,3.094923E1,1.0401204E1,6.4365074E-2,1.2121458E0,8.697107E0,7.8443164E-1,5.9508743E0,6.103945E0,5.113468E-1,0E0,4.5823526E0,9.8525125E-1,9.662262E0,9.634877E0,2.583003E0,1.4711266E1,4.841E-3,0E0,0E0,2.3370755E0,6.370765E0,7.721214E-1,3.2395926E-1,0E0,7.848793E0,1.7359314E0,2.6904857E0,8.6060915E0,0E0,0E0,7.042364E0,8.53308E0,9.056374E-1,1.1973339E0,8.815819E0,5.8052855E0,5.1039143E0,6.288189E0,1.4040289E0,6.2946177E-1,4.8719025E-1,3.3124432E-1,0E0,0E0,0E0,0E0,0E0,0E0,0E0,0E0,0E0,0E0,0E0,0E0,0E0,0E0,0E0,0E0,0E0,0E0,0E0,0E0,0E0,0E0,0E0,0E0,0E0,0E0,0E0,0E0,0E0,0E0,0E0,0E0,0E0,0E0,0E0,0E0,0E0,0E0,0E0,0E0,0E0,0E0],"parents":[2147483647,0,0,1,1,2,2,3,3,4,4,5,5,6,6,7,7,9,9,10,10,11,11,12,12,13,13,14,14,15,15,16,16,17,17,18,18,19,19,20,20,21,21,23,23,24,24,25,25,26,26,27,27,28,28,29,29,32,32,33,33,34,34,35,35,37,37,38,38,39,39,40,40,43,43,44,44,45,45,46,46,47,47,48,48,49,49,50,50,51,51,52,52,53,53,54,54],"right_children":[2,4,6,8,10,12,14,16,-1,18,20,22,24,26,28,30,32,34,36,38,40,42,-1,44,46,48,50,52,54,56,-1,-1,58,60,62,64,-1,66,68,70,72,-1,-1,74,76,78,80,82,84,86,88,90,92,94,96,-1,-1,-1,-1,-1,-1,-1,-1,-1,-1,-1,-1,-1,-1,-1,-1,-1,-1,-1,-1,-1,-1,-1,-1,-1,-1,-1,-1,-1,-1,-1,-1,-1,-1,-1,-1,-1,-1,-1,-1,-1,-1],"split_conditions":[-4.655792E0,8.0505085E-1,7.9017025E-1,-4.773041E0,-6.8696594E0,2.3661435E-1,-9.082031E-2,7.68512E-1,8.760406E-2,9.785423E-1,8.933077E-1,8.562927E-1,7.230835E-1,8.406632E-1,9.9821186E-1,-5.1249695E0,7.8482723E-1,9.463558E-1,-7.717682E0,8.700619E-1,-5.5545654E0,-5.206299E-1,2.3310145E-2,-1.8774414E-1,4.6653843E-1,-7.5271606E-1,-3.4956055E0,-7.3272705E-2,4.434204E-2,-5.2431946E0,1.573384E-2,-1.2919624E-1,7.9017025E-1,-8.218994E0,9.666214E-1,9.797344E-1,4.8415955E-2,8.5933304E-1,8.873472E-1,-6.314514E0,9.040365E-1,-3.3848338E-2,-1.0275526E-1,4.1766262E-1,4.0752983E-1,2.7858436E-1,5.225668E-1,8.06839E-1,8.2357025E-1,8.434531E-1,-2.5408325E0,8.7245417E-1,-4.3029785E-3,9.9940395E-1,1E0,-1.0382314E-2,-8.650726E-4,2.8199328E-2,-8.16051E-2,1.9099341E-1,-1.6500823E-3,1.628003E-1,9.42342E-2,-4.148563E-2,1.504511E-3,6.397839E-2,2.0133704E-3,6.892306E-2,1.1746516E-1,2.3675634E-2,-1.2056216E-2,-1.03944E-1,8.026665E-2,5.1712167E-2,3.563682E-3,-3.1437244E-2,3.473788E-2,3.1117374E-2,-2.8447969E-2,8.301157E-3,-1.0870868E-2,-3.8393244E-2,-9.4878316E-2,-8.5383635E-3,-5.6139585E-2,1.4777423E-1,1.4261349E-2,-5.4778464E-2,-1.4479245E-2,1.3722238E-1,1.8116454E-2,3.770212E-2,1.733408E-2,-1.8199378E-1,-8.31893E-2,6.6391528E-3,-1.364475E-2],"split_indices":[0,1,1,0,0,1,0,1,0,1,1,0,0,1,1,0,1,1,0,1,0,0,0,0,1,0,0,0,0,0,0,0,1,0,1,1,0,1,1,0,1,0,0,1,1,1,1,1,1,1,0,1,0,1,1,0,0,0,0,0,0,0,0,0,0,0,0,0,0,0,0,0,0,0,0,0,0,0,0,0,0,0,0,0,0,0,0,0,0,0,0,0,0,0,0,0,0],"split_type":[0,0,0,0,0,0,0,0,0,0,0,0,0,0,0,0,0,0,0,0,0,0,0,0,0,0,0,0,0,0,0,0,0,0,0,0,0,0,0,0,0,0,0,0,0,0,0,0,0,0,0,0,0,0,0,0,0,0,0,0,0,0,0,0,0,0,0,0,0,0,0,0,0,0,0,0,0,0,0,0,0,0,0,0,0,0,0,0,0,0,0,0,0,0,0,0,0],"sum_hessian":[1.892E3,2.99E2,1.593E3,2E1,2.79E2,6.94E2,8.99E2,1.7E1,3E0,3.9E1,2.4E2,9E0,6.85E2,6.88E2,2.11E2,3E0,1.4E1,3.2E1,7E0,1.33E2,1.07E2,8E0,1E0,5.25E2,1.6E2,2.31E2,4.57E2,1.72E2,3.9E1,2E0,1E0,5E0,9E0,1.3E1,1.9E1,6E0,1E0,8.6E1,4.7E1,8.4E1,2.3E1,3E0,5E0,3.2E2,2.05E2,2.8E1,1.32E2,1.28E2,1.03E2,7.6E1,3.81E2,4E0,1.68E2,8E0,3.1E1,1E0,1E0,2E0,7E0,1E0,1.2E1,9E0,1E1,3E0,3E0,5.3E1,3.3E1,3.3E1,1.4E1,3.6E1,4.8E1,2E0,2.1E1,3.3E1,2.87E2,2.1E1,1.84E2,2E0,2.6E1,5.5E1,7.7E1,4.4E1,8.4E1,4.8E1,5.5E1,2E0,7.4E1,4.3E1,3.38E2,2E0,2E0,1.7E1,1.51E2,4E0,4E0,1.8E1,1.3E1],"tree_param":{"num_deleted":"0","num_feature":"2","num_nodes":"97","size_leaf_vector":"1"}},{"base_weights":[-2.2879932E-3,2.8445005E-1,-3.752721E-2,4.058714E-1,8.565312E-2,-1.5648437E-1,5.431927E-2,1.8144374E-1,3.80292E-1,-3.4698576E-1,3.0443797E-1,1.38741E-1,-2.2404209E-1,9.187304E-2,-5.529911E-1,1.9022495E-1,5.2962816E-1,-6.220203E-2,-6.977819E-2,8.698804E-1,3.6412027E-2,-3.4812278E-1,5.393652E-1,-4.2911598E-1,-2.7027328E-2,-3.201635E-1,1.1321948E-1,-1.3550385E0,-1.7754816E-2,2.9909655E-1,-6.2280018E-2,6.526285E-1,7.371272E-2,-8.898067E-2,1.9723031E-1,1.2980617E0,5.183214E-1,-2.7658273E-2,1.1714714E-1,9.759263E-2,-7.9698634E-1,8.2552624E-1,2.5404912E-1,-1.4312422E-1,-6.1354744E-1,1.228074E-1,-5.8848524E-1,-7.585573E-1,-2.1672256E-1,1.5211569E-1,-5.1707838E-2,-2.5483307E-1,-9.482885E-1,4.833423E-2,-1.4294592E-1,1.0016782E-2,5.623432E-2,-3.0710328E-2,4.785504E-2,7.0890605E-2,1.654525E-2,-6.259655E-2,2.8332813E-2,-1.5768681E-3,6.8042025E-2,3.432874E-2,1.3999762E-1,6.321555E-2,-3.1000951E-2,1.5731728E-2,-4.6235885E-2,7.595672E-2,-1.5471418E-2,-1.04958236E-1,6.0424865E-3,9.322988E-2,3.2193854E-2,4.6925265E-2,9.999475E-3,-1.1514881E-2,-1.6661607E-1,-3.6226414E-2,-7.840295E-2,-3.2639473E-3,3.8690984E-2,-3.309439E-2,-1.407724E-1,-8.975654E-2,1.0724961E-2,-3.1256903E-2,1.1619629E-2,2.8723266E-3,2.6115214E-2,-3.174797E-2,-5.4471724E-4,7.592446E-2,-1.209183E-1,-1.3532214E-2,1.0686779E-2,2.2880805E-3,-1.6010115E-2],"categories":[],"categories_nodes":[],"categories_segments":[],"categories_sizes":[],"default_left":[0,0,0,0,0,0,0,0,0,0,0,0,0,0,0,0,0,0,0,0,0,0,0,0,0,0,0,0,0,0,0,0,0,0,0,0,0,0,0,0,0,0,0,0,0,0,0,0,0,0,0,0,0,0,0,0,0,0,0,0,0,0,0,0,0,0,0,0,0,0,0,0,0,0,0,0,0,0,0,0,0,0,0,0,0,0,0,0,0,0,0,0,0,0,0,0,0,0,0,0,0],"id":9,"left_children":[1,3,5,7,9,11,13,-1,15,17,19,21,23,25,27,29,31,33,-1,35,37,39,41,43,45,47,49,51,53,55,57,59,61,-1,63,65,67,69,-1,71,73,75,77,79,81,83,85,87,89,91,93,-1,95,97,99,-1,-1,-1,-1,-1,-1,-1,-1,-1,-1,-1,-1,-1,-1,-1,-1,-1,-1,-1,-1,-1,-1,-1,-1,-1,-1,-1,-1,-1,-1,-1,-1,-1,-1,-1,-1,-1,-1,-1,-1,-1,-1,-1,-1,-1,-1],"loss_changes":[1.8926155E1,4.9135647E0,1.8232729E1,3.885828E0,7.5833664E0,1.453092E1,2.153481E1,0E0,3.4756184E0,2.6539242E0,8.000647E0,2.6714483E1,2.3906727E1,7.8466616E0,2.3586609E1,1.585593E0,3.8773346E0,3.6108155E0,0E0,1.8862143E0,2.7231736E0,1.2481835E1,5.9137535E0,1.5208496E1,2.5562418E1,1.8309097E0,5.4285803E0,8.261623E0,2.8821704E-1,2.0383644E0,2.5303056E0,1.3906517E0,2.523967E0,0E0,1.3486758E0,2.0054245E-1,1.2331889E0,2.9674602E0,0E0,5.4621773E0,6.777357E0,1.6893215E0,1.2460458E0,4.708014E0,7.255684E0,9.865564E0,1.3037346E1,1.0590968E0,1.2169555E0,9.195223E0,1.9900254E0,0E0,8.936811E0,2.6171297E-1,3.780082E-2,0E0,0E0,0E0,0E0,0E0,0E0,0E0,0E0,0E0,0E0,0E0,0E0,0E0,0E0,0E0,0E0,0E0,0E0,0E0,0E0,0E0,0E0,0E0,0E0,0E0,0E0,0E0,0E0,0E0,0E0,0E0,0E0,0E0,0E0,0E0,0E0,0E0,0E0,0E0,0E0,0E0,0E0,0E0,0E0,0E0,0E0],"parents":[2147483647,0,0,1,1,2,2,3,3,4,4,5,5,6,6,8,8,9,9,10,10,11,11,12,12,13,13,14,14,15,15,16,16,17,17,19,19,20,20,21,21,22,22,23,23,24,24,25,25,26,26,27,27,28,28,29,29,30,30,31,31,32,32,34,34,35,35,36,36,37,37,39,39,40,40,41,41,42,42,43,43,44,44,45,45,46,46,47,47,48,48,49,49,50,50,52,52,53,53,54,54],"right_children":[2,4,6,8,10,12,14,-1,16,18,20,22,24,26,28,30,32,34,-1,36,38,40,42,44,46,48,50,52,54,56,58,60,62,-1,64,66,68,70,-1,72,74,76,78,80,82,84,86,88,90,92,94,-1,96,98,100,-1,-1,-1,-1,-1,-1,-1,-1,-1,-1,-1,-1,-1,-1,-1,-1,-1,-1,-1,-1,-1,-1,-1,-1,-1,-1,-1,-1,-1,-1,-1,-1,-1,-1,-1,-1,-1,-1,-1,-1,-1,-1,-1,-1,-1,-1],"split_conditions":[-5.2431946E0,9.35627E-1,-4.6951294E-1,-8.218994E0,9.445677E-1,7.6255155E-1,9.9821186E-1,1.8144374E-1,-5.8851013E0,-6.314514E0,9.666214E-1,5.100498E-1,8.652935E-1,4.0752983E-1,4.434204E-2,8.933077E-1,-5.3717957E0,-7.107605E0,-6.977819E-2,-6.8696594E0,-5.3089294E0,4.1766262E-1,-8.034973E-1,-3.8927002E0,-1.0244141E0,2.3661435E-1,7.230835E-1,9.988079E-1,1E0,8.662932E-1,9.141693E-1,9.195337E-1,8.3468366E-1,-8.898067E-2,9.433756E-1,9.463558E-1,9.624491E-1,-6.4908752E0,1.1714714E-1,-8.861084E-1,4.8501587E-1,7.472763E-1,5.690584E-1,8.643665E-1,8.06839E-1,9.666214E-1,9.8390675E-1,8.562927E-1,4.8727417E-1,-1.7272949E-1,4.586507E-1,-2.5483307E-1,-3.6483765E-1,9.9940395E-1,6.704712E-2,1.0016782E-2,5.623432E-2,-3.0710328E-2,4.785504E-2,7.0890605E-2,1.654525E-2,-6.259655E-2,2.8332813E-2,-1.5768681E-3,6.8042025E-2,3.432874E-2,1.3999762E-1,6.321555E-2,-3.1000951E-2,1.5731728E-2,-4.6235885E-2,7.595672E-2,-1.5471418E-2,-1.04958236E-1,6.0424865E-3,9.322988E-2,3.2193854E-2,4.6925265E-2,9.999475E-3,-1.1514881E-2,-1.6661607E-1,-3.6226414E-2,-7.840295E-2,-3.2639473E-3,3.8690984E-2,-3.309439E-2,-1.407724E-1,-8.975654E-2,1.0724961E-2,-3.1256903E-2,1.1619629E-2,2.8723266E-3,2.6115214E-2,-3.174797E-2,-5.4471724E-4,7.592446E-2,-1.209183E-1,-1.3532214E-2,1.0686779E-2,2.2880805E-3,-1.6010115E-2],"split_indices":[0,1,0,0,1,1,1,0,0,0,1,1,1,1,0,1,0,0,0,0,0,1,0,0,0,1,0,1,1,1,1,1,1,0,1,1,1,0,0,0,1,1,1,1,1,1,1,0,0,0,1,0,0,1,0,0,0,0,0,0,0,0,0,0,0,0,0,0,0,0,0,0,0,0,0,0,0,0,0,0,0,0,0,0,0,0,0,0,0,0,0,0,0,0,0,0,0,0,0,0,0],"split_type":[0,0,0,0,0,0,0,0,0,0,0,0,0,0,0,0,0,0,0,0,0,0,0,0,0,0,0,0,0,0,0,0,0,0,0,0,0,0,0,0,0,0,0,0,0,0,0,0,0,0,0,0,0,0,0,0,0,0,0,0,0,0,0,0,0,0,0,0,0,0,0,0,0,0,0,0,0,0,0,0,0,0,0,0,0,0,0,0,0,0,0,0,0,0,0,0,0,0,0,0,0],"sum_hessian":[1.871E3,2.04E2,1.667E3,1.26E2,7.8E1,7.26E2,9.41E2,1E0,1.25E2,2.6E1,5.2E1,1.35E2,5.91E2,8.87E2,5.4E1,5.6E1,6.9E1,1.5E1,1.1E1,1.6E1,3.6E1,6.1E1,7.4E1,2.89E2,3.02E2,4.3E1,8.44E2,2.1E1,3.3E1,3.9E1,1.7E1,5.4E1,1.5E1,3E0,1.2E1,6E0,1E1,3.5E1,1E0,3.1E1,3E1,3.6E1,3.8E1,1.14E2,1.75E2,2.39E2,6.3E1,7E0,3.6E1,6.83E2,1.61E2,4E0,1.7E1,2.2E1,1.1E1,2.3E1,1.6E1,1.2E1,5E0,4.8E1,6E0,3E0,1.2E1,9E0,3E0,1E0,5E0,9E0,1E0,2.5E1,1E1,8E0,2.3E1,2.3E1,7E0,2.9E1,7E0,1.5E1,2.3E1,1.13E2,1E0,7.2E1,1.03E2,1.51E2,8.8E1,4.9E1,1.4E1,6E0,1E0,2.8E1,8E0,3.21E2,3.62E2,2.3E1,1.38E2,2E0,1.5E1,5E0,1.7E1,1E0,1E1],"tree_param":{"num_deleted":"0","num_feature":"2","num_nodes":"101","size_leaf_vector":"1"}},{"base_weights":[-6.912569E-4,2.4458523E-1,-3.6454115E-2,-6.967692E-1,2.885431E-1,9.96362E-2,-1.3826644E-1,-4.6529643E-2,-8.3609694E-1,2.328161E-1,9.319493E-1,-4.6826646E-2,1.7872603E-1,-2.0723386E-1,8.767357E-2,-6.7333714E-3,-2.4607498E-4,-1.1063873E0,-3.9858717E-1,2.9313463E-1,-1.974592E-2,4.3765157E-1,1.377619E0,-8.1734085E-1,2.7654043E-3,-5.018094E-1,2.0449612E-1,-3.7609285E-1,-6.649213E-2,1.4637975E-1,-6.2541133E-1,-1.2211301E-1,-3.2370802E-2,2.7087033E-1,-9.351823E-2,1.2212902E-1,2.5222966E-1,-1.13219686E-1,6.9460386E-1,-9.821218E-3,5.0810444E-1,1.5275757E-1,5.6851387E-2,-4.771634E-1,-1.137949E0,1.0436071E0,-4.3506518E-2,-7.747534E-1,5.789467E-1,5.852904E-1,1.4430773E-1,-5.218049E-1,-1.1235267E-1,8.06631E-2,-2.637569E-1,4.4572696E-1,1.2545803E-1,-1.4871863E0,-1.4240621E-1,6.706435E-3,3.3924114E-2,2.0879876E-2,6.206066E-2,2.3415606E-3,-4.1121412E-2,1.6211188E-1,-4.6344567E-2,8.148454E-2,2.1892644E-2,-5.584996E-2,-2.358683E-2,-3.3947952E-2,-1.21444725E-1,7.9521835E-3,1.4454262E-1,-4.388083E-2,1.0346017E-3,-1.7525274E-2,-1.3492179E-1,6.692933E-2,1.5395338E-2,8.2829334E-2,2.7799089E-2,3.0330786E-2,6.701305E-3,-3.0061731E-2,-7.939149E-2,4.5964655E-2,-2.5567507E-2,-3.758638E-3,6.344191E-2,-4.8221378E-3,-1.3474101E-1,1.2281618E-2,5.7559665E-2,1.604004E-2,-6.974218E-3,-2.2635218E-2,-2.0610154E-1,2.1736764E-3,-1.5930437E-2],"categories":[],"categories_nodes":[],"categories_segments":[],"categories_sizes":[],"default_left":[0,0,0,0,0,0,0,0,0,0,0,0,0,0,0,0,0,0,0,0,0,0,0,0,0,0,0,0,0,0,0,0,0,0,0,0,0,0,0,0,0,0,0,0,0,0,0,0,0,0,0,0,0,0,0,0,0,0,0,0,0,0,0,0,0,0,0,0,0,0,0,0,0,0,0,0,0,0,0,0,0,0,0,0,0,0,0,0,0,0,0,0,0,0,0,0,0,0,0,0,0],"id":10,"left_children":[1,3,5,7,9,11,13,15,17,19,21,23,25,27,29,-1,-1,31,33,35,37,39,41,43,45,47,49,51,53,55,57,-1,-1,59,-1,-1,61,63,65,-1,67,-1,-1,69,71,73,75,77,79,81,83,85,87,89,91,93,95,97,99,-1,-1,-1,-1,-1,-1,-1,-1,-1,-1,-1,-1,-1,-1,-1,-1,-1,-1,-1,-1,-1,-1,-1,-1,-1,-1,-1,-1,-1,-1,-1,-1,-1,-1,-1,-1,-1,-1,-1,-1,-1,-1],"loss_changes":[1.6543737E1,1.0132236E1,2.2820211E1,9.5765686E-1,8.029701E0,8.174894E0,1.469688E1,2.5847456E-3,6.2330055E-1,3.2506666E0,3.3623676E0,9.4786825E0,8.134771E0,1.713369E1,9.34316E0,0E0,0E0,5.3744793E-2,2.0494509E0,6.2221365E0,2.8831074E0,4.274335E-1,2.2352791E-1,1.092967E0,1.1315253E1,5.4633007E0,1.004591E1,1.2546459E1,1.1487549E1,1.2279663E0,6.864326E0,0E0,0E0,1.9052163E-2,0E0,0E0,2.5262432E0,1.556858E0,6.1160517E0,0E0,6.1993337E-1,0E0,0E0,4.490161E-2,1.5291214E-2,3.758937E0,4.7943406E0,4.5850315E0,5.0546885E-2,4.2502213E0,4.686693E0,1.2460869E1,9.791197E0,1.4888111E1,3.9407635E1,4.7447944E-1,1.3275928E0,3.874504E0,3.674735E-2,0E0,0E0,0E0,0E0,0E0,0E0,0E0,0E0,0E0,0E0,0E0,0E0,0E0,0E0,0E0,0E0,0E0,0E0,0E0,0E0,0E0,0E0,0E0,0E0,0E0,0E0,0E0,0E0,0E0,0E0,0E0,0E0,0E0,0E0,0E0,0E0,0E0,0E0,0E0,0E0,0E0,0E0],"parents":[2147483647,0,0,1,1,2,2,3,3,4,4,5,5,6,6,7,7,8,8,9,9,10,10,11,11,12,12,13,13,14,14,17,17,18,18,19,19,20,20,21,21,22,22,23,23,24,24,25,25,26,26,27,27,28,28,29,29,30,30,33,33,36,36,37,37,38,38,40,40,43,43,44,44,45,45,46,46,47,47,48,48,49,49,50,50,51,51,52,52,53,53,54,54,55,55,56,56,57,57,58,58],"right_children":[2,4,6,8,10,12,14,16,18,20,22,24,26,28,30,-1,-1,32,34,36,38,40,42,44,46,48,50,52,54,56,58,-1,-1,60,-1,-1,62,64,66,-1,68,-1,-1,70,72,74,76,78,80,82,84,86,88,90,92,94,96,98,100,-1,-1,-1,-1,-1,-1,-1,-1,-1,-1,-1,-1,-1,-1,-1,-1,-1,-1,-1,-1,-1,-1,-1,-1,-1,-1,-1,-1,-1,-1,-1,-1,-1,-1,-1,-1,-1,-1,-1,-1,-1,-1],"split_conditions":[-5.005188E0,7.911618E-1,7.9017025E-1,7.68512E-1,-5.1917725E0,4.969368E-1,-8.093262E-2,-5.2431946E0,7.8482723E-1,9.666214E-1,8.662932E-1,-1.0358887E0,-3.4956055E0,8.662932E-1,1E0,-6.7333714E-3,-2.4607498E-4,-5.0843506E0,7.9017025E-1,-7.3316345E0,-5.445801E0,7.931719E-1,9.7258186E-1,4.586507E-1,-8.323364E-1,7.8044343E-1,-7.770996E-1,-5.434265E-1,-1.0244141E0,-3.265381E-2,-4.3029785E-3,-1.2211301E-1,-3.2370802E-2,-5.1917725E0,-9.351823E-2,1.2212902E-1,9.445677E-1,-6.4519043E0,9.7258186E-1,-9.821218E-3,8.434531E-1,1.5275757E-1,5.6851387E-2,-1.3387146E0,-1.9576111E0,3.7534332E-1,3.5374653E-1,-4.2075806E0,7.82396E-1,7.3773956E-1,5.690584E-1,-2.4479065E0,8.1198645E-1,1E0,9.8629093E-1,-6.0424805E-2,9.9701977E-1,-5.291748E-2,6.704712E-2,6.706435E-3,3.3924114E-2,2.0879876E-2,6.206066E-2,2.3415606E-3,-4.1121412E-2,1.6211188E-1,-4.6344567E-2,8.148454E-2,2.1892644E-2,-5.584996E-2,-2.358683E-2,-3.3947952E-2,-1.21444725E-1,7.9521835E-3,1.4454262E-1,-4.388083E-2,1.0346017E-3,-1.7525274E-2,-1.3492179E-1,6.692933E-2,1.5395338E-2,8.2829334E-2,2.7799089E-2,3.0330786E-2,6.701305E-3,-3.0061731E-2,-7.939149E-2,4.5964655E-2,-2.5567507E-2,-3.758638E-3,6.344191E-2,-4.8221378E-3,-1.3474101E-1,1.2281618E-2,5.7559665E-2,1.604004E-2,-6.974218E-3,-2.2635218E-2,-2.0610154E-1,2.1736764E-3,-1.5930437E-2],"split_indices":[0,1,1,1,0,1,0,0,1,1,1,0,0,1,1,0,0,0,1,0,0,1,1,1,0,1,0,0,0,0,0,0,0,0,0,0,1,0,1,0,1,0,0,0,0,1,1,0,1,1,1,0,1,1,1,0,1,0,0,0,0,0,0,0,0,0,0,0,0,0,0,0,0,0,0,0,0,0,0,0,0,0,0,0,0,0,0,0,0,0,0,0,0,0,0,0,0,0,0,0,0],"split_type":[0,0,0,0,0,0,0,0,0,0,0,0,0,0,0,0,0,0,0,0,0,0,0,0,0,0,0,0,0,0,0,0,0,0,0,0,0,0,0,0,0,0,0,0,0,0,0,0,0,0,0,0,0,0,0,0,0,0,0,0,0,0,0,0,0,0,0,0,0,0,0,0,0,0,0,0,0,0,0,0,0,0,0,0,0,0,0,0,0,0,0,0,0,0,0,0,0,0,0,0,0],"sum_hessian":[1.884E3,2.39E2,1.645E3,1E1,2.29E2,7.04E2,9.41E2,2E0,8E0,2.12E2,1.7E1,2.47E2,4.57E2,7.21E2,2.2E2,1E0,1E0,4E0,4E0,1.71E2,4.1E1,9E0,8E0,1.4E1,2.33E2,1.6E1,4.41E2,3.27E2,3.94E2,2.04E2,1.6E1,3E0,1E0,2E0,2E0,6E0,1.65E2,3.7E1,4E0,1E0,8E0,6E0,2E0,8E0,6E0,9E0,2.24E2,1.3E1,3E0,5.9E1,3.82E2,2.1E2,1.17E2,2.26E2,1.68E2,1.2E1,1.92E2,5E0,1.1E1,1E0,1E0,1.49E2,1.6E1,2.6E1,1.1E1,2E0,2E0,3E0,5E0,5E0,3E0,1E0,5E0,3E0,6E0,2.6E1,1.98E2,7E0,6E0,2E0,1E0,3.2E1,2.7E1,1.24E2,2.58E2,1.17E2,9.3E1,2.3E1,9.4E1,1.87E2,3.9E1,1.41E2,2.7E1,4E0,8E0,1.63E2,2.9E1,2E0,3E0,1E0,1E1],"tree_param":{"num_deleted":"0","num_feature":"2","num_nodes":"101","size_leaf_vector":"1"}},{"base_weights":[8.520043E-3,3.3421943E-1,-2.9690158E-2,3.6798105E-1,-2.7931958E-1,7.3220976E-2,-1.017907E-1,1.1529411E0,3.085852E-1,-1.6381986E-1,-3.8515526E-1,4.635957E-2,3.3616278E-1,-2.4814889E-1,-3.986926E-2,1.2987053E0,6.599773E-1,4.8750335E-1,1.4713562E-1,-3.9729703E-2,1.1061227E-2,-6.8371496E-3,-6.350883E-2,-6.000044E-1,6.285871E-2,5.058689E-1,4.270334E-3,-3.834798E-1,2.3337008E-1,2.2633244E-1,-1.049435E-1,1.5710174E-1,7.666523E-2,-5.0666846E-2,1.07830584E-1,3.6813012E-1,1.1111469E0,-1.5776059E-2,4.1456798E-1,4.4320416E-2,-4.5345988E-2,1.6210842E-1,-9.611564E-1,3.0919078E-1,2.0221917E-2,3.604197E-1,7.2878826E-1,-1.0143958E0,3.4358847E-1,-1.8373154E-1,-5.4032856E-1,6.3731647E-1,1.823535E-1,1.0074222E0,1.7727903E-1,-1.6127776E-1,9.599531E-2,4.0185016E-2,-3.0557234E-2,5.810957E-2,1.84301E-1,-7.8847356E-2,3.87251E-3,9.8192535E-2,2.6836565E-2,-4.420316E-3,2.76315E-2,-4.2990725E-2,-1.7833658E-1,8.966013E-2,1.3356841E-2,5.699868E-3,-2.940551E-2,5.7669867E-2,-8.6552305E-3,8.888368E-2,3.1390123E-2,-5.571204E-2,-1.6503865E-1,-8.068964E-3,4.7057435E-2,-1.16587915E-1,-1.1170333E-2,-6.826337E-2,-3.6292873E-2,1.1503722E-1,2.0201975E-2,-9.525422E-2,2.587961E-2,-7.548348E-3,1.3809714E-1,-7.0984237E-4,3.2188702E-2,-1.0656504E-2,-3.7831653E-2,1.8612042E-2,-2.9950521E-3],"categories":[],"categories_nodes":[],"categories_segments":[],"categories_sizes":[],"default_left":[0,0,0,0,0,0,0,0,0,0,0,0,0,0,0,0,0,0,0,0,0,0,0,0,0,0,0,0,0,0,0,0,0,0,0,0,0,0,0,0,0,0,0,0,0,0,0,0,0,0,0,0,0,0,0,0,0,0,0,0,0,0,0,0,0,0,0,0,0,0,0,0,0,0,0,0,0,0,0,0,0,0,0,0,0,0,0,0,0,0,0,0,0,0,0,0,0],"id":11,"left_children":[1,3,5,7,9,11,13,15,17,19,21,23,25,27,29,31,33,35,37,-1,-1,39,-1,41,43,45,47,49,51,53,55,-1,-1,-1,-1,57,59,61,63,-1,-1,65,67,69,71,73,75,77,79,81,83,85,87,89,91,93,95,-1,-1,-1,-1,-1,-1,-1,-1,-1,-1,-1,-1,-1,-1,-1,-1,-1,-1,-1,-1,-1,-1,-1,-1,-1,-1,-1,-1,-1,-1,-1,-1,-1,-1,-1,-1,-1,-1,-1,-1],"loss_changes":[2.3705276E1,4.2455997E0,1.2658464E1,8.502659E0,7.136786E-2,4.9496946E0,9.080004E0,7.701874E-2,5.0700245E0,4.9246138E-1,4.6842867E-1,6.852299E0,3.6589117E0,1.950848E1,1.2253701E1,9.953499E-2,2.9865494E0,5.844446E0,4.1454864E0,0E0,0E0,8.0397135E-1,0E0,4.559629E0,6.547501E0,1.1315393E0,8.298529E0,7.20068E0,1.2439091E0,5.1472054E0,6.445093E0,0E0,0E0,0E0,0E0,1.7584362E0,3.9720573E0,2.5573082E0,2.7226477E0,0E0,0E0,1.5358685E-1,4.0380964E0,9.371185E0,6.177223E0,2.756692E0,7.8342533E-1,8.2547283E-1,1.0077624E0,7.2269692E0,3.0340881E0,1.3309224E0,5.451778E0,3.3403883E0,3.5217295E0,5.232086E0,1.4244347E0,0E0,0E0,0E0,0E0,0E0,0E0,0E0,0E0,0E0,0E0,0E0,0E0,0E0,0E0,0E0,0E0,0E0,0E0,0E0,0E0,0E0,0E0,0E0,0E0,0E0,0E0,0E0,0E0,0E0,0E0,0E0,0E0,0E0,0E0,0E0,0E0,0E0,0E0,0E0,0E0],"parents":[2147483647,0,0,1,1,2,2,3,3,4,4,5,5,6,6,7,7,8,8,9,9,10,10,11,11,12,12,13,13,14,14,15,15,16,16,17,17,18,18,21,21,23,23,24,24,25,25,26,26,27,27,28,28,29,29,30,30,35,35,36,36,37,37,38,38,41,41,42,42,43,43,44,44,45,45,46,46,47,47,48,48,49,49,50,50,51,51,52,52,53,53,54,54,55,55,56,56],"right_children":[2,4,6,8,10,12,14,16,18,20,22,24,26,28,30,32,34,36,38,-1,-1,40,-1,42,44,46,48,50,52,54,56,-1,-1,-1,-1,58,60,62,64,-1,-1,66,68,70,72,74,76,78,80,82,84,86,88,90,92,94,96,-1,-1,-1,-1,-1,-1,-1,-1,-1,-1,-1,-1,-1,-1,-1,-1,-1,-1,-1,-1,-1,-1,-1,-1,-1,-1,-1,-1,-1,-1,-1,-1,-1,-1,-1,-1,-1,-1,-1,-1],"split_conditions":[-5.3717957E0,9.785423E-1,7.9017025E-1,-7.3316345E0,-8.218994E0,7.7469444E-1,8.4025955E-1,-7.717682E0,8.933077E-1,9.797344E-1,9.797344E-1,-3.4956055E0,7.82396E-1,-1.7272949E-1,-3.764038E0,9.701977E-1,9.3920326E-1,8.873472E-1,9.445677E-1,-3.9729703E-2,1.1061227E-2,-7.717682E0,-6.350883E-2,7.68512E-1,-6.442871E-1,7.8044343E-1,7.8482723E-1,8.155627E-1,-1.00616455E-1,8.434531E-1,8.874512E-2,1.5710174E-1,7.666523E-2,-5.0666846E-2,1.07830584E-1,8.84367E-1,-5.7950134E0,-6.8696594E0,-6.8696594E0,4.4320416E-2,-4.5345988E-2,-5.1249695E0,-4.4501038E0,4.1766262E-1,6.852875E-1,7.782493E-1,-1.4013672E-1,-2.375763E0,-4.7451782E-1,7.911618E-1,-9.182434E-1,8.1854296E-1,-9.082031E-2,8.406632E-1,8.742423E-1,9.922514E-1,9.922514E-1,4.0185016E-2,-3.0557234E-2,5.810957E-2,1.84301E-1,-7.8847356E-2,3.87251E-3,9.8192535E-2,2.6836565E-2,-4.420316E-3,2.76315E-2,-4.2990725E-2,-1.7833658E-1,8.966013E-2,1.3356841E-2,5.699868E-3,-2.940551E-2,5.7669867E-2,-8.6552305E-3,8.888368E-2,3.1390123E-2,-5.571204E-2,-1.6503865E-1,-8.068964E-3,4.7057435E-2,-1.16587915E-1,-1.1170333E-2,-6.826337E-2,-3.6292873E-2,1.1503722E-1,2.0201975E-2,-9.525422E-2,2.587961E-2,-7.548348E-3,1.3809714E-1,-7.0984237E-4,3.2188702E-2,-1.0656504E-2,-3.7831653E-2,1.8612042E-2,-2.9950521E-3],"split_indices":[0,1,1,0,0,1,1,0,1,1,1,0,1,0,0,1,1,1,1,0,0,0,0,1,0,1,1,1,0,1,0,0,0,0,0,1,0,0,0,0,0,0,0,1,1,1,0,0,0,1,0,1,0,1,1,1,1,0,0,0,0,0,0,0,0,0,0,0,0,0,0,0,0,0,0,0,0,0,0,0,0,0,0,0,0,0,0,0,0,0,0,0,0,0,0,0,0],"split_type":[0,0,0,0,0,0,0,0,0,0,0,0,0,0,0,0,0,0,0,0,0,0,0,0,0,0,0,0,0,0,0,0,0,0,0,0,0,0,0,0,0,0,0,0,0,0,0,0,0,0,0,0,0,0,0,0,0,0,0,0,0,0,0,0,0,0,0,0,0,0,0,0,0,0,0,0,0,0,0,0,0,0,0,0,0,0,0,0,0,0,0,0,0,0,0,0,0],"sum_hessian":[1.903E3,1.99E2,1.704E3,1.89E2,1E1,7.02E2,1.002E3,1.2E1,1.77E2,6E0,4E0,6.38E2,6.4E1,2.97E2,7.05E2,8E0,4E0,8.3E1,9.4E1,3E0,3E0,2E0,2E0,1.5E1,6.23E2,4.2E1,2.2E1,2.32E2,6.5E1,1.38E2,5.67E2,4E0,4E0,1E0,3E0,7.1E1,1.2E1,5.9E1,3.5E1,1E0,1E0,5E0,1E1,9.1E1,5.32E2,2.7E1,1.5E1,5E0,1.7E1,1.03E2,1.29E2,6E0,5.9E1,7E0,1.31E2,4.43E2,1.24E2,6.8E1,3E0,8E0,4E0,3E0,5.6E1,6E0,2.9E1,2E0,3E0,7E0,3E0,2E1,7.1E1,4.77E2,5.5E1,1.8E1,9E0,1E1,5E0,4E0,1E0,4E0,1.3E1,6E0,9.7E1,7E1,5.9E1,2E0,4E0,3E0,5.6E1,2E0,5E0,5.8E1,7.3E1,3.55E2,8.8E1,7.2E1,5.2E1],"tree_param":{"num_deleted":"0","num_feature":"2","num_nodes":"97","size_leaf_vector":"1"}},{"base_weights":[3.645315E-3,2.493297E-1,-3.308768E-2,-6.691484E-1,3.003816E-1,7.3921904E-2,-1.3939498E-1,-1.2755488E-5,-7.248895E-1,2.5912777E-1,7.995984E-1,-3.6405858E-1,8.84451E-2,-2.0849942E-1,4.7728796E-2,-8.2304823E-1,-3.2281005E-1,4.8262247E-1,1.9467641E-1,9.738614E-1,-3.3824954E-2,-5.046471E-1,3.2734264E-2,1.308349E-1,-5.7531573E-2,-5.0107414E-1,-1.2490768E-1,1.4620997E-1,-3.4728062E-1,-9.65783E-1,-4.03184E-1,3.1097988E-2,-6.9226705E-2,6.104867E-1,-1.2508059E-1,3.8048863E-1,5.6662552E-2,4.948869E-1,1.2381903E0,-3.1702433E-2,-7.4043286E-1,3.785523E-1,8.897729E-2,-1.7600524E-1,-2.8960688E-2,-1.0859363E0,-4.5420557E-1,7.477016E-2,-1.7155673E-1,4.6160468E-1,7.8241155E-2,-1.2254454E0,-1.7424325E-2,-2.0870477E-2,-1.0754577E-1,4.886701E-3,-8.796685E-2,-2.7966661E-2,3.263136E-2,1.0146024E-1,3.6940563E-2,-2.5911262E-2,4.735879E-2,2.3002474E-2,6.0334302E-2,-9.715821E-3,1.3038379E-2,6.673803E-2,4.243569E-3,1.3737503E-1,5.0915387E-2,-8.509168E-2,-3.895987E-2,1.1604869E-1,2.2550317E-2,-4.427543E-2,1.39270425E-2,-4.4002654E-3,-3.614373E-2,5.4256646E-3,-9.706406E-3,-3.1116588E-2,-1.1438868E-1,-3.1619586E-2,-6.428429E-2,-4.3578534E-3,5.3743612E-2,-2.5571475E-2,-2.7435506E-3,1.0099091E-1,3.173189E-2,-3.161326E-3,1.4498408E-2,-6.509415E-2,-2.2117177E-1,2.6317948E-2,-3.4417552E-3],"categories":[],"categories_nodes":[],"categories_segments":[],"categories_sizes":[],"default_left":[0,0,0,0,0,0,0,0,0,0,0,0,0,0,0,0,0,0,0,0,0,0,0,0,0,0,0,0,0,0,0,0,0,0,0,0,0,0,0,0,0,0,0,0,0,0,0,0,0,0,0,0,0,0,0,0,0,0,0,0,0,0,0,0,0,0,0,0,0,0,0,0,0,0,0,0,0,0,0,0,0,0,0,0,0,0,0,0,0,0,0,0,0,0,0,0,0],"id":12,"left_children":[1,3,5,7,9,11,13,-1,15,17,19,21,23,25,27,29,31,33,35,37,-1,39,-1,41,43,45,47,49,51,53,55,57,-1,59,61,63,65,67,69,-1,71,73,75,77,79,81,83,85,87,89,91,93,95,-1,-1,-1,-1,-1,-1,-1,-1,-1,-1,-1,-1,-1,-1,-1,-1,-1,-1,-1,-1,-1,-1,-1,-1,-1,-1,-1,-1,-1,-1,-1,-1,-1,-1,-1,-1,-1,-1,-1,-1,-1,-1,-1,-1],"loss_changes":[1.6722034E1,1.1501504E1,1.8348255E1,4.8470306E-1,4.5089664E0,5.1463447E0,1.0471197E1,0E0,2.0792294E-1,2.9742107E0,3.7002497E0,2.6924722E0,4.8279204E0,1.4391399E1,8.570093E0,1.4997482E-1,5.445433E-1,3.728423E0,4.2611E0,1.2863388E0,0E0,7.3851824E-1,0E0,6.229109E0,5.906447E-1,3.097683E0,4.306941E0,3.736796E0,1.2724049E1,2.7374077E-1,9.04568E-1,3.6648667E-1,0E0,3.4247618E0,8.4487945E-1,2.2419548E0,1.112634E0,5.1799285E-1,1.9000149E-1,0E0,1.73378E-2,1.0149981E1,1.39142475E1,8.1633127E-1,8.1570184E-1,4.81472E-2,2.9988918E0,4.841941E0,4.529214E0,2.1320252E0,1.0750562E0,5.359709E0,1.6641401E-1,0E0,0E0,0E0,0E0,0E0,0E0,0E0,0E0,0E0,0E0,0E0,0E0,0E0,0E0,0E0,0E0,0E0,0E0,0E0,0E0,0E0,0E0,0E0,0E0,0E0,0E0,0E0,0E0,0E0,0E0,0E0,0E0,0E0,0E0,0E0,0E0,0E0,0E0,0E0,0E0,0E0,0E0,0E0,0E0],"parents":[2147483647,0,0,1,1,2,2,3,3,4,4,5,5,6,6,8,8,9,9,10,10,11,11,12,12,13,13,14,14,15,15,16,16,17,17,18,18,19,19,21,21,23,23,24,24,25,25,26,26,27,27,28,28,29,29,30,30,31,31,33,33,34,34,35,35,36,36,37,37,38,38,40,40,41,41,42,42,43,43,44,44,45,45,46,46,47,47,48,48,49,49,50,50,51,51,52,52],"right_children":[2,4,6,8,10,12,14,-1,16,18,20,22,24,26,28,30,32,34,36,38,-1,40,-1,42,44,46,48,50,52,54,56,58,-1,60,62,64,66,68,70,-1,72,74,76,78,80,82,84,86,88,90,92,94,96,-1,-1,-1,-1,-1,-1,-1,-1,-1,-1,-1,-1,-1,-1,-1,-1,-1,-1,-1,-1,-1,-1,-1,-1,-1,-1,-1,-1,-1,-1,-1,-1,-1,-1,-1,-1,-1,-1,-1,-1,-1,-1,-1,-1],"split_conditions":[-5.005188E0,8.0505085E-1,8.1198645E-1,7.68512E-1,-5.1917725E0,3.5374653E-1,-1.4013672E-1,-1.2755488E-5,-5.0843506E0,-6.75412E0,9.767542E-1,8.562927E-1,4.8727417E-1,8.4025955E-1,9.976158E-1,7.911618E-1,7.9017025E-1,9.785423E-1,8.905925E-1,8.662932E-1,-3.3824954E-2,-2.2857666E-1,3.2734264E-2,4.4925308E-1,4.6653843E-1,8.1282E-1,-3.8927002E0,-4.3029785E-3,4.434204E-2,-5.2431946E0,7.931719E-1,7.8482723E-1,-6.9226705E-2,-7.3316345E0,-7.717682E0,8.700619E-1,9.153614E-1,8.4669375E-1,9.7258186E-1,-3.1702433E-2,2.0266724E-1,-7.770996E-1,4.891882E-1,4.391203E-1,5.303154E-1,-1.9576111E0,8.294084E-1,-4.2626953E0,9.320507E-1,8.1854296E-1,1.44104E-1,-5.291748E-2,5.203247E-2,-2.0870477E-2,-1.0754577E-1,4.886701E-3,-8.796685E-2,-2.7966661E-2,3.263136E-2,1.0146024E-1,3.6940563E-2,-2.5911262E-2,4.735879E-2,2.3002474E-2,6.0334302E-2,-9.715821E-3,1.3038379E-2,6.673803E-2,4.243569E-3,1.3737503E-1,5.0915387E-2,-8.509168E-2,-3.895987E-2,1.1604869E-1,2.2550317E-2,-4.427543E-2,1.39270425E-2,-4.4002654E-3,-3.614373E-2,5.4256646E-3,-9.706406E-3,-3.1116588E-2,-1.1438868E-1,-3.1619586E-2,-6.428429E-2,-4.3578534E-3,5.3743612E-2,-2.5571475E-2,-2.7435506E-3,1.0099091E-1,3.173189E-2,-3.161326E-3,1.4498408E-2,-6.509415E-2,-2.2117177E-1,2.6317948E-2,-3.4417552E-3],"split_indices":[0,1,1,1,0,1,0,0,0,0,1,0,0,1,1,1,1,1,1,1,0,0,0,1,1,1,0,0,0,0,1,1,0,0,0,1,1,1,1,0,0,0,1,1,1,0,1,0,1,1,0,0,0,0,0,0,0,0,0,0,0,0,0,0,0,0,0,0,0,0,0,0,0,0,0,0,0,0,0,0,0,0,0,0,0,0,0,0,0,0,0,0,0,0,0,0,0],"split_type":[0,0,0,0,0,0,0,0,0,0,0,0,0,0,0,0,0,0,0,0,0,0,0,0,0,0,0,0,0,0,0,0,0,0,0,0,0,0,0,0,0,0,0,0,0,0,0,0,0,0,0,0,0,0,0,0,0,0,0,0,0,0,0,0,0,0,0,0,0,0,0,0,0,0,0,0,0,0,0,0,0,0,0,0,0,0,0,0,0,0,0,0,0,0,0,0,0],"sum_hessian":[1.851E3,2.4E2,1.611E3,1.2E1,2.28E2,8.03E2,8.08E2,1E0,1.1E1,2.12E2,1.6E1,2.5E1,7.78E2,5.9E2,2.18E2,8E0,3E0,4.6E1,1.66E2,1.4E1,2E0,2.1E1,4E0,6.03E2,1.75E2,1.3E2,4.6E2,1.75E2,4.3E1,5E0,3E0,2E0,1E0,3.8E1,8E0,7E1,9.6E1,6E0,8E0,1.3E1,8E0,8.6E1,5.17E2,3.3E1,1.42E2,8E0,1.22E2,8.7E1,3.73E2,3E1,1.45E2,1.1E1,3.2E1,1E0,4E0,2E0,1E0,1E0,1E0,1.3E1,2.5E1,7E0,1E0,4.3E1,2.7E1,3.1E1,6.5E1,4E0,2E0,6E0,2E0,5E0,3E0,1.3E1,7.3E1,4.4E1,4.73E2,2E1,1.3E1,6.4E1,7.8E1,1E0,7E0,7.2E1,5E1,7E1,1.7E1,2.35E2,1.38E2,5E0,2.5E1,5.5E1,9E1,8E0,3E0,1E0,3.1E1],"tree_param":{"num_deleted":"0","num_feature":"2","num_nodes":"97","size_leaf_vector":"1"}},{"base_weights":[1.8794402E-2,1.820908E-1,-2.0524038E-2,-1.6272147E-1,2.1644059E-1,-1.3951975E-1,5.064686E-2,-5.63685E-1,2.7140003E-1,7.1932703E-1,1.9070034E-1,-1.8873398E-1,3.8002002E-1,7.397302E-2,-3.420842E-1,4.067031E-2,-6.872674E-1,6.9034564E-1,-6.1172456E-1,8.382831E-1,4.955856E-2,-2.4401957E-1,2.3801184E-1,-1.5874235E-1,-1.3577315E-1,5.4867154E-1,-1.6966404E-1,-2.777068E-1,9.094367E-2,-1.0799795E0,5.6862906E-2,-4.124778E-2,1.4321229E-2,-4.7605094E-1,-8.606505E-2,7.99055E-1,3.783416E-1,-9.43774E-2,-2.0975631E-1,3.1002656E-2,9.4492406E-2,1.7978033E-1,-9.653344E-1,8.571396E-1,2.151318E-1,-1.9988461E-1,8.6540824E-1,2.9225013E-1,7.6263237E-1,-5.664487E-1,-1.8179391E-1,4.3735182E-1,7.275618E-2,-1.9560735E-1,-8.618465E-1,8.3867E-1,-1.3792515E-2,-6.1750496E-3,-1.2117717E-5,-3.2663606E-2,-8.3568506E-2,3.4469057E-2,8.930614E-2,5.5182345E-2,7.8745885E-3,-4.1921627E-2,2.0931175E-2,-7.08939E-3,8.182816E-2,-1.7520978E-1,-6.32772E-2,2.1113157E-4,1.22327864E-1,1.9612936E-2,6.637254E-2,7.5754137E-3,-3.2613758E-2,1.4268439E-1,5.228755E-2,5.7326835E-2,-1.3122291E-3,8.468144E-3,8.5123114E-2,-6.526342E-2,1.0461048E-2,-8.26892E-3,-5.380844E-2,1.3151027E-2,1.433478E-1,1.0583156E-2,-6.7332643E-3,6.348764E-2,-9.9507146E-2,1.0079845E-1,2.5002053E-2,3.1073985E-3,-8.010708E-3],"categories":[],"categories_nodes":[],"categories_segments":[],"categories_sizes":[],"default_left":[0,0,0,0,0,0,0,0,0,0,0,0,0,0,0,0,0,0,0,0,0,0,0,0,0,0,0,0,0,0,0,0,0,0,0,0,0,0,0,0,0,0,0,0,0,0,0,0,0,0,0,0,0,0,0,0,0,0,0,0,0,0,0,0,0,0,0,0,0,0,0,0,0,0,0,0,0,0,0,0,0,0,0,0,0,0,0,0,0,0,0,0,0,0,0,0,0],"id":13,"left_children":[1,3,5,7,9,11,13,15,17,19,21,23,25,27,29,31,33,35,37,39,-1,41,43,45,-1,47,-1,49,51,53,55,57,-1,59,-1,61,63,-1,65,-1,-1,67,69,71,73,75,77,79,81,83,85,87,89,-1,91,93,95,-1,-1,-1,-1,-1,-1,-1,-1,-1,-1,-1,-1,-1,-1,-1,-1,-1,-1,-1,-1,-1,-1,-1,-1,-1,-1,-1,-1,-1,-1,-1,-1,-1,-1,-1,-1,-1,-1,-1,-1],"loss_changes":[1.2209221E1,4.40574E0,1.2990092E1,6.0712585E0,4.2121515E0,1.4748185E1,8.8197775E0,1.3723292E0,6.7119813E0,1.04055405E-2,6.6601677E0,1.8191038E1,1.8442493E1,5.438444E0,1.5957996E1,3.950736E-2,1.3960695E-1,1.0469723E-1,6.028774E-1,2.1405268E-1,0E0,9.9557295E0,3.923645E0,2.1788675E1,0E0,2.3557348E0,0E0,1.0601737E0,5.4242353E0,1.9451618E0,2.000168E0,2.5221384E-3,0E0,2.1064758E-1,0E0,3.3875465E-2,2.1641827E-1,0E0,4.3885878E-1,0E0,0E0,3.4191833E0,2.0310965E0,3.1280107E0,2.265173E0,1.721601E1,3.1001396E0,1.9812726E0,1.4295559E0,6.4662814E-1,1.1207384E0,1.2911723E1,3.8251224E0,0E0,4.0215607E0,4.698372E-2,1.0364952E-1,0E0,0E0,0E0,0E0,0E0,0E0,0E0,0E0,0E0,0E0,0E0,0E0,0E0,0E0,0E0,0E0,0E0,0E0,0E0,0E0,0E0,0E0,0E0,0E0,0E0,0E0,0E0,0E0,0E0,0E0,0E0,0E0,0E0,0E0,0E0,0E0,0E0,0E0,0E0,0E0],"parents":[2147483647,0,0,1,1,2,2,3,3,4,4,5,5,6,6,7,7,8,8,9,9,10,10,11,11,12,12,13,13,14,14,15,15,16,16,17,17,18,18,19,19,21,21,22,22,23,23,25,25,27,27,28,28,29,29,30,30,31,31,33,33,35,35,36,36,38,38,41,41,42,42,43,43,44,44,45,45,46,46,47,47,48,48,49,49,50,50,51,51,52,52,54,54,55,55,56,56],"right_children":[2,4,6,8,10,12,14,16,18,20,22,24,26,28,30,32,34,36,38,40,-1,42,44,46,-1,48,-1,50,52,54,56,58,-1,60,-1,62,64,-1,66,-1,-1,68,70,72,74,76,78,80,82,84,86,88,90,-1,92,94,96,-1,-1,-1,-1,-1,-1,-1,-1,-1,-1,-1,-1,-1,-1,-1,-1,-1,-1,-1,-1,-1,-1,-1,-1,-1,-1,-1,-1,-1,-1,-1,-1,-1,-1,-1,-1,-1,-1,-1,-1],"split_conditions":[-4.3677063E0,8.0505085E-1,-4.6951294E-1,-4.773041E0,8.294084E-1,9.988079E-1,9.9821186E-1,7.68512E-1,7.931719E-1,-4.689575E0,8.384714E-1,9.8390675E-1,-7.040405E-1,4.0752983E-1,-1.2878418E-2,-5.1249695E0,-5.1249695E0,-4.6220093E0,7.982774E-1,-5.5545654E0,4.955856E-2,-4.947937E0,8.434531E-1,9.666214E-1,-1.3577315E-1,-1.7249451E0,-1.6966404E-1,2.7858436E-1,4.391203E-1,9.988079E-1,5.203247E-2,-5.2431946E0,1.4321229E-2,7.931719E-1,-8.606505E-2,7.7469444E-1,7.770316E-1,-9.43774E-2,-4.5229797E0,3.1002656E-2,9.4492406E-2,-5.3089294E0,-4.6220093E0,-6.8696594E0,-4.5229797E0,7.82396E-1,9.7735023E-1,-2.1325073E0,9.9940395E-1,8.562927E-1,4.021654E-1,4.313717E-1,7.230835E-1,-1.9560735E-1,-3.6483765E-1,3.1219482E-2,1E0,-6.1750496E-3,-1.2117717E-5,-3.2663606E-2,-8.3568506E-2,3.4469057E-2,8.930614E-2,5.5182345E-2,7.8745885E-3,-4.1921627E-2,2.0931175E-2,-7.08939E-3,8.182816E-2,-1.7520978E-1,-6.32772E-2,2.1113157E-4,1.22327864E-1,1.9612936E-2,6.637254E-2,7.5754137E-3,-3.2613758E-2,1.4268439E-1,5.228755E-2,5.7326835E-2,-1.3122291E-3,8.468144E-3,8.5123114E-2,-6.526342E-2,1.0461048E-2,-8.26892E-3,-5.380844E-2,1.3151027E-2,1.433478E-1,1.0583156E-2,-6.7332643E-3,6.348764E-2,-9.9507146E-2,1.0079845E-1,2.5002053E-2,3.1073985E-3,-8.010708E-3],"split_indices":[0,1,0,0,1,1,1,1,1,0,1,1,0,1,0,0,0,0,1,0,0,0,1,1,0,0,0,1,1,1,0,0,0,1,0,1,1,0,0,0,0,0,0,0,0,1,1,0,1,0,1,1,0,0,0,0,1,0,0,0,0,0,0,0,0,0,0,0,0,0,0,0,0,0,0,0,0,0,0,0,0,0,0,0,0,0,0,0,0,0,0,0,0,0,0,0,0],"split_type":[0,0,0,0,0,0,0,0,0,0,0,0,0,0,0,0,0,0,0,0,0,0,0,0,0,0,0,0,0,0,0,0,0,0,0,0,0,0,0,0,0,0,0,0,0,0,0,0,0,0,0,0,0,0,0,0,0,0,0,0,0,0,0,0,0,0,0,0,0,0,0,0,0,0,0,0,0,0,0,0,0,0,0,0,0,0,0,0,0,0,0,0,0,0,0,0,0],"sum_hessian":[1.9E3,3.68E2,1.532E3,3.3E1,3.35E2,5.73E2,9.59E2,1.7E1,1.6E1,1.5E1,3.2E2,5.24E2,4.9E1,9.06E2,5.3E1,3E0,1.4E1,1.1E1,5E0,8E0,7E0,3.1E1,2.89E2,5.12E2,1.2E1,4.6E1,3E0,4.1E1,8.65E2,1.8E1,3.5E1,2E0,1E0,8E0,6E0,7E0,4E0,2E0,3E0,2E0,6E0,2E1,1.1E1,9E0,2.8E2,4.93E2,1.9E1,2.2E1,2.4E1,9E0,3.2E1,4.2E1,8.23E2,2E0,1.6E1,2E0,3.3E1,1E0,1E0,7E0,1E0,2E0,5E0,2E0,2E0,2E0,1E0,1.5E1,5E0,2E0,9E0,3E0,6E0,2.7E2,1E1,1.55E2,3.38E2,6E0,1.3E1,1.1E1,1.1E1,3E0,2.1E1,8E0,1E0,2.6E1,6E0,3.3E1,9E0,6.66E2,1.57E2,1E0,1.5E1,1E0,1E0,2E1,1.3E1],"tree_param":{"num_deleted":"0","num_feature":"2","num_nodes":"97","size_leaf_vector":"1"}},{"base_weights":[-2.052646E-2,1.6652481E-1,-6.028114E-2,-2.0961054E-1,1.9632113E-1,-1.6857284E-1,1.3366091E-2,-6.4393437E-1,4.0170476E-1,6.803073E-1,1.6591816E-1,9.461854E-2,-2.390156E-1,4.237217E-2,-4.7068563E-1,-3.9724752E-1,-9.477567E-2,5.3454614E-1,-4.6335455E-2,7.50965E-1,7.669731E-2,1.0026417E-1,3.5541558E-1,-3.1187138E-1,4.3391252E-1,-3.9909065E-1,-9.999153E-2,-2.3954892E-1,6.282417E-2,-1.2086298E0,-2.2757094E-2,-2.6496372E-1,-7.9390086E-2,6.2261724E-1,1.21507764E-1,7.0215794E-3,7.9166725E-2,1.4022962E-4,1.1364368E-2,1.888446E-1,-4.2327917E-1,4.0681672E-1,-4.4556397E-1,5.297198E-2,-7.028034E-1,6.294511E-1,2.4228945E-1,-3.4533727E-1,-9.542971E-1,8.097549E-3,-4.6274358E-1,-2.837632E-1,4.2527888E-2,6.2835824E-1,4.5094855E-2,7.8318074E-2,-1.4734522E0,9.575853E-2,-8.148217E-2,-3.362111E-2,-9.185175E-3,4.381946E-3,6.9904275E-2,5.971537E-2,-4.148921E-2,1.1667911E-2,8.2459666E-2,-1.839005E-2,-8.069186E-2,7.720613E-2,2.0388206E-2,-1.5405643E-2,-5.8855023E-2,-1.4072365E-2,5.1254433E-2,-1.7714359E-1,-5.1845767E-2,3.6658105E-2,7.800692E-2,3.249925E-2,-2.6674276E-2,-3.973945E-2,1.0424192E-2,-4.2391025E-2,-1.8787427E-1,4.5675945E-2,-6.672442E-3,-1.1924081E-1,-2.819844E-2,-6.1681964E-2,-1.9970907E-2,2.4507161E-2,-9.958924E-3,2.4627944E-2,1.280245E-1,6.5152004E-4,1.4382983E-2,-2.037065E-1,-8.188556E-2,-1.3840678E-1,2.475743E-4],"categories":[],"categories_nodes":[],"categories_segments":[],"categories_sizes":[],"default_left":[0,0,0,0,0,0,0,0,0,0,0,0,0,0,0,0,0,0,0,0,0,0,0,0,0,0,0,0,0,0,0,0,0,0,0,0,0,0,0,0,0,0,0,0,0,0,0,0,0,0,0,0,0,0,0,0,0,0,0,0,0,0,0,0,0,0,0,0,0,0,0,0,0,0,0,0,0,0,0,0,0,0,0,0,0,0,0,0,0,0,0,0,0,0,0,0,0,0,0,0,0],"id":14,"left_children":[1,3,5,7,9,11,13,15,17,19,21,23,25,27,29,31,-1,33,-1,35,37,39,41,43,45,47,49,51,53,55,57,59,-1,61,63,-1,-1,-1,-1,65,67,69,71,73,75,77,79,81,83,85,87,89,91,93,95,-1,97,-1,99,-1,-1,-1,-1,-1,-1,-1,-1,-1,-1,-1,-1,-1,-1,-1,-1,-1,-1,-1,-1,-1,-1,-1,-1,-1,-1,-1,-1,-1,-1,-1,-1,-1,-1,-1,-1,-1,-1,-1,-1,-1,-1],"loss_changes":[1.4168493E1,3.7844381E0,1.2531582E1,6.896392E0,4.448659E0,1.1814009E1,1.3161799E1,7.4774075E-1,1.5117564E0,7.100973E-1,3.6096544E0,1.8754467E1,1.1131744E1,5.112059E0,1.7491451E1,3.143531E-1,0E0,2.881148E-1,0E0,3.8774014E-1,8.186268E-3,1.0236212E1,3.2691088E0,8.880223E0,2.6202488E0,6.6241493E0,1.0590322E1,7.6037717E-1,8.243551E0,1.1703495E1,2.0354292E0,8.012241E-2,0E0,3.2324767E-1,1.0131636E0,0E0,0E0,0E0,0E0,8.529106E0,2.790331E0,5.1051664E0,1.1773789E-1,3.0096931E0,4.991519E0,1.13939E0,1.7285318E0,5.0498466E0,9.009857E0,7.046558E0,7.841159E0,1.3325443E0,2.8347087E-1,5.9115047E0,3.0502005E0,0E0,4.9728394E0,0E0,3.612385E0,0E0,0E0,0E0,0E0,0E0,0E0,0E0,0E0,0E0,0E0,0E0,0E0,0E0,0E0,0E0,0E0,0E0,0E0,0E0,0E0,0E0,0E0,0E0,0E0,0E0,0E0,0E0,0E0,0E0,0E0,0E0,0E0,0E0,0E0,0E0,0E0,0E0,0E0,0E0,0E0,0E0,0E0],"parents":[2147483647,0,0,1,1,2,2,3,3,4,4,5,5,6,6,7,7,8,8,9,9,10,10,11,11,12,12,13,13,14,14,15,15,17,17,19,19,20,20,21,21,22,22,23,23,24,24,25,25,26,26,27,27,28,28,29,29,30,30,31,31,33,33,34,34,39,39,40,40,41,41,42,42,43,43,44,44,45,45,46,46,47,47,48,48,49,49,50,50,51,51,52,52,53,53,54,54,56,56,58,58],"right_children":[2,4,6,8,10,12,14,16,18,20,22,24,26,28,30,32,-1,34,-1,36,38,40,42,44,46,48,50,52,54,56,58,60,-1,62,64,-1,-1,-1,-1,66,68,70,72,74,76,78,80,82,84,86,88,90,92,94,96,-1,98,-1,100,-1,-1,-1,-1,-1,-1,-1,-1,-1,-1,-1,-1,-1,-1,-1,-1,-1,-1,-1,-1,-1,-1,-1,-1,-1,-1,-1,-1,-1,-1,-1,-1,-1,-1,-1,-1,-1,-1,-1,-1,-1,-1],"split_conditions":[-4.536377E0,8.0505085E-1,-4.6951294E-1,-4.773041E0,8.3349156E-1,7.6255155E-1,9.9821186E-1,-5.1249695E0,7.931719E-1,-4.6220093E0,9.445677E-1,5.100498E-1,8.611212E-1,4.2183495E-1,-4.3029785E-3,7.931719E-1,-9.477567E-2,7.82396E-1,-4.6335455E-2,-6.6310425E0,8.294084E-1,9.320507E-1,9.797344E-1,4.391203E-1,-7.770996E-1,8.497963E-1,-1.0244141E0,1.5539551E0,4.391203E-1,-3.6483765E-1,3.1219482E-2,7.911618E-1,-7.9390086E-2,7.574091E-1,-4.689575E0,7.0215794E-3,7.9166725E-2,1.4022962E-4,1.1364368E-2,9.141693E-1,-6.245636E0,-6.8696594E0,-8.218994E0,3.9546978E-1,4.502452E-1,6.095896E-1,7.3773956E-1,8.384714E-1,-2.6706238E0,8.9748E-1,-8.861084E-1,2.7858436E-1,2.7858436E-1,4.313717E-1,8.4920025E-1,7.8318074E-2,-1.00616455E-1,9.575853E-2,4.434204E-2,-3.362111E-2,-9.185175E-3,4.381946E-3,6.9904275E-2,5.971537E-2,-4.148921E-2,1.1667911E-2,8.2459666E-2,-1.839005E-2,-8.069186E-2,7.720613E-2,2.0388206E-2,-1.5405643E-2,-5.8855023E-2,-1.4072365E-2,5.1254433E-2,-1.7714359E-1,-5.1845767E-2,3.6658105E-2,7.800692E-2,3.249925E-2,-2.6674276E-2,-3.973945E-2,1.0424192E-2,-4.2391025E-2,-1.8787427E-1,4.5675945E-2,-6.672442E-3,-1.1924081E-1,-2.819844E-2,-6.1681964E-2,-1.9970907E-2,2.4507161E-2,-9.958924E-3,2.4627944E-2,1.280245E-1,6.5152004E-4,1.4382983E-2,-2.037065E-1,-8.188556E-2,-1.3840678E-1,2.475743E-4],"split_indices":[0,1,0,0,1,1,1,0,1,0,1,1,1,1,0,1,0,1,0,0,1,1,1,1,0,1,0,0,1,0,0,1,0,1,0,0,0,0,0,1,0,0,0,1,1,1,1,1,0,1,0,1,1,1,1,0,0,0,0,0,0,0,0,0,0,0,0,0,0,0,0,0,0,0,0,0,0,0,0,0,0,0,0,0,0,0,0,0,0,0,0,0,0,0,0,0,0,0,0,0,0],"split_type":[0,0,0,0,0,0,0,0,0,0,0,0,0,0,0,0,0,0,0,0,0,0,0,0,0,0,0,0,0,0,0,0,0,0,0,0,0,0,0,0,0,0,0,0,0,0,0,0,0,0,0,0,0,0,0,0,0,0,0,0,0,0,0,0,0,0,0,0,0,0,0,0,0,0,0,0,0,0,0,0,0,0,0,0,0,0,0,0,0,0,0,0,0,0,0,0,0,0,0,0,0],"sum_hessian":[1.903E3,3.33E2,1.57E3,2.4E1,3.09E2,6.35E2,9.35E2,1.4E1,1E1,1.7E1,2.92E2,1.34E2,5.01E2,8.83E2,5.2E1,9E0,5E0,9E0,1E0,1.5E1,2E0,2.18E2,7.4E1,6.1E1,7.3E1,2.32E2,2.69E2,5.9E1,8.24E2,1.9E1,3.3E1,8E0,1E0,7E0,2E0,1E0,1.4E1,1E0,1E0,1.87E2,3.1E1,7E1,4E0,3.2E1,2.9E1,3.5E1,3.8E1,2.13E2,1.9E1,2.08E2,6.1E1,5.1E1,8E0,2.4E1,8E2,2E0,1.7E1,1E0,3.2E1,5E0,3E0,1E0,6E0,1E0,1E0,1.69E2,1.8E1,2E1,1.1E1,2.4E1,4.6E1,2E0,2E0,2.3E1,9E0,3E0,2.6E1,1.4E1,2.1E1,3.3E1,5E0,1.91E2,2.2E1,1.3E1,6E0,2.9E1,1.79E2,1.1E1,5E1,9E0,4.2E1,3E0,5E0,1.6E1,8E0,5.76E2,2.24E2,8E0,9E0,1E0,3.1E1],"tree_param":{"num_deleted":"0","num_feature":"2","num_nodes":"101","size_leaf_vector":"1"}},{"base_weights":[9.833568E-3,1.7382807E-1,-1.9774139E-2,-4.674699E-1,2.1593745E-1,6.0042925E-2,-8.72531E-2,-5.617088E-1,5.6729604E-2,8.9657694E-2,3.617047E-1,-4.0081516E-2,1.159672E-1,-2.4503244E-1,-2.3125563E-2,7.914127E-2,-7.0468676E-1,2.7135843E-1,-1.6089426E-1,6.7930794E-1,2.7551082E-1,-8.7258255E-1,3.3688631E-3,2.996267E-1,6.0037047E-2,-3.3823574E-1,2.3605338E-1,1.1477703E-2,-1.5995683E-1,-1.6771318E-2,1.8343952E-2,-9.829474E-2,-4.950878E-1,5.3711814E-1,1.9194362E-1,5.104864E-2,-2.8719515E-1,7.827022E-1,4.9345616E-1,2.2665272E-2,5.279031E-1,-5.753284E-1,-1.23312354E-1,8.194935E-1,-5.593664E-2,5.1602626E-1,4.340714E-2,-2.6078448E-1,8.1690475E-2,-4.489503E-1,-1.9801098E-1,7.0471066E-1,4.072203E-2,-5.3010322E-2,3.5889396E-1,-5.289487E-1,9.6509956E-2,-4.1852416E-3,1.6695437E-3,4.004183E-2,-6.390794E-2,3.478514E-2,1.4305903E-1,-1.4020763E-2,4.196509E-2,-2.0385034E-2,2.824132E-2,-3.1432915E-2,3.7194837E-2,2.0466391E-2,9.101565E-2,7.4171975E-2,2.1016506E-2,2.150382E-2,-2.4069168E-2,1.5423082E-1,3.2689974E-2,-6.991615E-2,-2.4574665E-2,1.3003129E-1,1.1603251E-2,-4.327626E-2,-3.7182078E-3,1.6616104E-2,6.911837E-2,5.5003583E-2,-2.2608472E-2,3.640462E-2,-5.569008E-2,3.7305743E-2,2.741027E-3,-8.859032E-3,-6.1000492E-2,-4.641441E-3,-4.5223337E-2,1.0979028E-1,1.285348E-2,-6.184208E-2,8.477595E-3,-1.6673667E-2,6.2070913E-3,8.599335E-2,2.3390211E-2,-8.7085485E-2,-7.4851895E-3,4.0571194E-2,-2.9994437E-2],"categories":[],"categories_nodes":[],"categories_segments":[],"categories_sizes":[],"default_left":[0,0,0,0,0,0,0,0,0,0,0,0,0,0,0,0,0,0,0,0,0,0,0,0,0,0,0,0,0,0,0,0,0,0,0,0,0,0,0,0,0,0,0,0,0,0,0,0,0,0,0,0,0,0,0,0,0,0,0,0,0,0,0,0,0,0,0,0,0,0,0,0,0,0,0,0,0,0,0,0,0,0,0,0,0,0,0,0,0,0,0,0,0,0,0,0,0,0,0,0,0,0,0,0,0,0,0],"id":15,"left_children":[1,3,5,7,9,11,13,15,-1,17,19,21,23,25,27,29,31,33,35,37,39,41,43,45,47,49,51,53,55,57,-1,-1,59,61,63,65,67,69,71,73,75,77,-1,79,81,83,85,87,89,91,93,95,97,99,101,103,105,-1,-1,-1,-1,-1,-1,-1,-1,-1,-1,-1,-1,-1,-1,-1,-1,-1,-1,-1,-1,-1,-1,-1,-1,-1,-1,-1,-1,-1,-1,-1,-1,-1,-1,-1,-1,-1,-1,-1,-1,-1,-1,-1,-1,-1,-1,-1,-1,-1,-1],"loss_changes":[9.112358E0,7.851282E0,8.568935E0,2.0739298E0,4.937583E0,4.0866013E0,8.716051E0,1.6134362E0,0E0,6.690379E0,3.2347755E0,9.480131E0,4.789357E0,1.1244698E1,2.9090085E0,4.3090574E-2,3.298788E-1,1.6908503E0,1.674313E0,1.1338711E-1,6.369661E0,6.837883E-1,1.2146009E1,6.0211926E0,2.5221825E0,3.1558113E0,3.7245846E0,1.1019482E1,1.1785685E1,3.216893E-3,0E0,0E0,1.5453525E0,2.7153535E0,5.1262665E0,1.4729602E0,8.144367E-1,9.1882515E-1,6.88087E-1,2.6355581E0,9.690757E0,1.9550157E-1,0E0,5.599164E0,1.637635E0,3.500763E0,7.0875025E0,4.4582562E0,5.335399E0,6.6783237E0,3.601699E0,2.577454E0,9.235619E-1,5.4417725E0,4.621051E0,7.8529987E0,9.192942E0,0E0,0E0,0E0,0E0,0E0,0E0,0E0,0E0,0E0,0E0,0E0,0E0,0E0,0E0,0E0,0E0,0E0,0E0,0E0,0E0,0E0,0E0,0E0,0E0,0E0,0E0,0E0,0E0,0E0,0E0,0E0,0E0,0E0,0E0,0E0,0E0,0E0,0E0,0E0,0E0,0E0,0E0,0E0,0E0,0E0,0E0,0E0,0E0,0E0,0E0],"parents":[2147483647,0,0,1,1,2,2,3,3,4,4,5,5,6,6,7,7,9,9,10,10,11,11,12,12,13,13,14,14,15,15,16,16,17,17,18,18,19,19,20,20,21,21,22,22,23,23,24,24,25,25,26,26,27,27,28,28,29,29,32,32,33,33,34,34,35,35,36,36,37,37,38,38,39,39,40,40,41,41,43,43,44,44,45,45,46,46,47,47,48,48,49,49,50,50,51,51,52,52,53,53,54,54,55,55,56,56],"right_children":[2,4,6,8,10,12,14,16,-1,18,20,22,24,26,28,30,32,34,36,38,40,42,44,46,48,50,52,54,56,58,-1,-1,60,62,64,66,68,70,72,74,76,78,-1,80,82,84,86,88,90,92,94,96,98,100,102,104,106,-1,-1,-1,-1,-1,-1,-1,-1,-1,-1,-1,-1,-1,-1,-1,-1,-1,-1,-1,-1,-1,-1,-1,-1,-1,-1,-1,-1,-1,-1,-1,-1,-1,-1,-1,-1,-1,-1,-1,-1,-1,-1,-1,-1,-1,-1,-1,-1,-1,-1],"split_conditions":[-4.689575E0,8.0505085E-1,7.982774E-1,-4.773041E0,-5.761078E0,5.136261E-1,8.4025955E-1,7.68512E-1,5.6729604E-2,-6.314514E0,8.521805E-1,-1.0358887E0,5.690584E-1,-1.5255737E-1,9.922514E-1,-5.1249695E0,7.8482723E-1,8.766265E-1,8.905925E-1,8.434531E-1,8.8377094E-1,4.586507E-1,-7.770996E-1,-4.1290283E-2,-3.365509E0,-8.861084E-1,-4.1290283E-2,9.666214E-1,9.9940395E-1,-5.2431946E0,1.8343952E-2,-9.829474E-2,7.9017025E-1,-6.37854E0,9.433756E-1,-5.9933777E0,9.7258186E-1,-5.445801E0,-5.3089294E0,-5.0843506E0,8.905925E-1,-1.5192871E0,-1.23312354E-1,4.021654E-1,2.3661435E-1,5.3091145E-1,5.303154E-1,-4.5771484E0,-7.770996E-1,-3.9633179E0,8.294084E-1,8.1854296E-1,-2.4780273E-2,-6.667175E-1,9.7735023E-1,4.434204E-2,-5.3427124E-1,-4.1852416E-3,1.6695437E-3,4.004183E-2,-6.390794E-2,3.478514E-2,1.4305903E-1,-1.4020763E-2,4.196509E-2,-2.0385034E-2,2.824132E-2,-3.1432915E-2,3.7194837E-2,2.0466391E-2,9.101565E-2,7.4171975E-2,2.1016506E-2,2.150382E-2,-2.4069168E-2,1.5423082E-1,3.2689974E-2,-6.991615E-2,-2.4574665E-2,1.3003129E-1,1.1603251E-2,-4.327626E-2,-3.7182078E-3,1.6616104E-2,6.911837E-2,5.5003583E-2,-2.2608472E-2,3.640462E-2,-5.569008E-2,3.7305743E-2,2.741027E-3,-8.859032E-3,-6.1000492E-2,-4.641441E-3,-4.5223337E-2,1.0979028E-1,1.285348E-2,-6.184208E-2,8.477595E-3,-1.6673667E-2,6.2070913E-3,8.599335E-2,2.3390211E-2,-8.7085485E-2,-7.4851895E-3,4.0571194E-2,-2.9994437E-2],"split_indices":[0,1,1,0,0,1,1,1,0,0,1,0,1,0,1,0,1,1,1,1,1,1,0,0,0,0,0,1,1,0,0,0,1,0,1,0,1,0,0,0,1,0,0,1,1,1,1,0,0,0,1,1,0,0,1,0,0,0,0,0,0,0,0,0,0,0,0,0,0,0,0,0,0,0,0,0,0,0,0,0,0,0,0,0,0,0,0,0,0,0,0,0,0,0,0,0,0,0,0,0,0,0,0,0,0,0,0],"split_type":[0,0,0,0,0,0,0,0,0,0,0,0,0,0,0,0,0,0,0,0,0,0,0,0,0,0,0,0,0,0,0,0,0,0,0,0,0,0,0,0,0,0,0,0,0,0,0,0,0,0,0,0,0,0,0,0,0,0,0,0,0,0,0,0,0,0,0,0,0,0,0,0,0,0,0,0,0,0,0,0,0,0,0,0,0,0,0,0,0,0,0,0,0,0,0,0,0,0,0,0,0,0,0,0,0,0,0],"sum_hessian":[1.875E3,2.86E2,1.589E3,1.7E1,2.69E2,7.28E2,8.61E2,1.6E1,1E0,1.45E2,1.24E2,2.61E2,4.67E2,2.48E2,6.13E2,3E0,1.3E1,8.4E1,6.1E1,2.5E1,9.9E1,1.2E1,2.49E2,1.08E2,3.59E2,2.08E2,4E1,4.9E2,1.23E2,2E0,1E0,4E0,9E0,1.8E1,6.6E1,2.3E1,3.8E1,1.4E1,1.1E1,5E1,4.9E1,8E0,4E0,1.6E1,2.33E2,5.8E1,5E1,2.2E1,3.37E2,1.15E2,9.3E1,1.1E1,2.9E1,4.14E2,7.6E1,5E1,7.3E1,1E0,1E0,1E0,8E0,1.6E1,2E0,2.7E1,3.9E1,1.1E1,1.2E1,3.7E1,1E0,3E0,1.1E1,5E0,6E0,2.9E1,2.1E1,7E0,4.2E1,5E0,3E0,9E0,7E0,1E1,2.23E2,2E1,3.8E1,1.7E1,3.3E1,7E0,1.5E1,5.2E1,2.85E2,3.6E1,7.9E1,5.9E1,3.4E1,6E0,5E0,1E0,2.8E1,2.08E2,2.06E2,1.4E1,6.2E1,2.8E1,2.2E1,4.1E1,3.2E1],"tree_param":{"num_deleted":"0","num_feature":"2","num_nodes":"107","size_leaf_vector":"1"}},{"base_weights":[1.0485224E-2,2.3531717E-1,-1.5064017E-2,1.7274617E-1,4.143969E-1,5.849229E-2,-6.7898616E-2,7.144723E-2,3.6768395E-1,4.4276565E-1,-4.7365166E-2,-6.395667E-2,1.3205096E-1,-1.1094165E-1,-5.822489E-2,2.5048187E-1,-1.7792093E-2,5.483403E-1,5.3577054E-2,3.769885E-1,1.0720673E0,-7.794027E-1,-2.4113983E-2,-2.9991814E-1,1.6087767E-1,1.1304191E-1,-9.976908E-2,8.028495E-2,1.1534883E0,-7.845902E-2,3.1965718E-2,7.7266914E-1,3.1814778E-1,-4.9054962E-1,2.313808E-1,4.5774695E-1,-5.652224E-2,-2.9976074E-2,1.6292636E-1,-4.219765E-1,-9.9472517E-1,6.428457E-1,-5.9991002E-2,-6.56043E-1,1.6145998E-1,4.193853E-1,9.980058E-2,-1.2281483E-1,2.1428555E-1,-2.0867492E-1,-1.5412157E-2,4.7352772E-2,-2.5790762E-3,3.384472E-2,1.5840334E-1,-1.1995822E-2,1.5259157E-2,2.3527896E-2,9.466948E-2,-2.7466536E-2,4.6479814E-2,-7.47144E-2,2.6791384E-2,6.163676E-3,3.722023E-2,3.6395643E-2,1.257768E-1,-5.2207824E-2,-1.1448149E-2,-2.2325492E-2,-1.0730417E-1,-2.0045908E-2,1.03992105E-1,-3.4423385E-2,-1.4823515E-3,-2.0279827E-2,-1.6126218E-1,4.2288758E-2,-1.230333E-2,6.463674E-2,9.995704E-3,5.3420123E-3,3.8484123E-2,1.4410895E-2,-7.2398484E-2,1.1521423E-1,1.690032E-2,-3.5721254E-2,1.0920212E-2,4.6748505E-3,-4.65216E-2],"categories":[],"categories_nodes":[],"categories_segments":[],"categories_sizes":[],"default_left":[0,0,0,0,0,0,0,0,0,0,0,0,0,0,0,0,0,0,0,0,0,0,0,0,0,0,0,0,0,0,0,0,0,0,0,0,0,0,0,0,0,0,0,0,0,0,0,0,0,0,0,0,0,0,0,0,0,0,0,0,0,0,0,0,0,0,0,0,0,0,0,0,0,0,0,0,0,0,0,0,0,0,0,0,0,0,0,0,0,0,0],"id":16,"left_children":[1,3,5,7,9,11,13,15,17,19,-1,21,23,-1,25,27,29,31,33,35,37,39,41,43,45,47,49,51,53,-1,55,57,59,61,63,65,-1,-1,-1,67,69,71,73,75,77,79,81,83,85,87,89,-1,-1,-1,-1,-1,-1,-1,-1,-1,-1,-1,-1,-1,-1,-1,-1,-1,-1,-1,-1,-1,-1,-1,-1,-1,-1,-1,-1,-1,-1,-1,-1,-1,-1,-1,-1,-1,-1,-1,-1],"loss_changes":[1.0808547E1,2.079812E0,6.5718493E0,2.8172965E0,1.4441652E0,6.376524E0,9.84956E0,1.538242E0,2.7511463E0,1.5827389E0,0E0,7.563613E0,5.5521436E0,0E0,6.9556546E0,4.825438E0,2.5051026E0,1.3549805E0,1.9517113E0,3.6828465E0,3.5458984E0,6.577158E-1,6.0924807E0,4.7065544E0,6.510537E0,4.587206E0,7.2177353E0,1.1801908E0,1.2184477E0,0E0,1.1545138E0,1.1800575E0,1.6055802E0,1.1732572E0,3.3561283E-1,2.6936722E0,0E0,0E0,0E0,1.5569723E-1,2.437892E-1,4.561584E0,3.088984E0,6.6099916E0,1.0188963E0,5.663248E0,4.4346886E0,9.411394E0,5.4960465E0,1.6234333E1,1.2436035E1,0E0,0E0,0E0,0E0,0E0,0E0,0E0,0E0,0E0,0E0,0E0,0E0,0E0,0E0,0E0,0E0,0E0,0E0,0E0,0E0,0E0,0E0,0E0,0E0,0E0,0E0,0E0,0E0,0E0,0E0,0E0,0E0,0E0,0E0,0E0,0E0,0E0,0E0,0E0,0E0],"parents":[2147483647,0,0,1,1,2,2,3,3,4,4,5,5,6,6,7,7,8,8,9,9,11,11,12,12,14,14,15,15,16,16,17,17,18,18,19,19,20,20,21,21,22,22,23,23,24,24,25,25,26,26,27,27,28,28,30,30,31,31,32,32,33,33,34,34,35,35,39,39,40,40,41,41,42,42,43,43,44,44,45,45,46,46,47,47,48,48,49,49,50,50],"right_children":[2,4,6,8,10,12,14,16,18,20,-1,22,24,-1,26,28,30,32,34,36,38,40,42,44,46,48,50,52,54,-1,56,58,60,62,64,66,-1,-1,-1,68,70,72,74,76,78,80,82,84,86,88,90,-1,-1,-1,-1,-1,-1,-1,-1,-1,-1,-1,-1,-1,-1,-1,-1,-1,-1,-1,-1,-1,-1,-1,-1,-1,-1,-1,-1,-1,-1,-1,-1,-1,-1,-1,-1,-1,-1,-1,-1],"split_conditions":[-5.3717957E0,-5.761078E0,7.9017025E-1,9.445677E-1,9.785423E-1,5.136261E-1,7.911618E-1,8.766265E-1,9.701977E-1,9.701977E-1,-4.7365166E-2,-1.0358887E0,-3.4956055E0,-1.1094165E-1,-3.8927002E0,8.662932E-1,-7.107605E0,-6.8696594E0,9.7258186E-1,9.195337E-1,-5.680542E0,4.586507E-1,-8.034973E-1,7.7469444E-1,-6.442871E-1,8.406632E-1,-5.3427124E-1,8.3349156E-1,-7.107605E0,-7.845902E-2,9.141693E-1,-7.717682E0,-6.75412E0,-6.1352234E0,-8.218994E0,9.153614E-1,-5.652224E-2,-2.9976074E-2,1.6292636E-1,4.391203E-1,-1.9576111E0,3.7534332E-1,-5.0323486E-1,-4.2075806E0,7.82396E-1,7.3773956E-1,7.6255155E-1,8.3251095E-1,8.434531E-1,9.320507E-1,9.9821186E-1,4.7352772E-2,-2.5790762E-3,3.384472E-2,1.5840334E-1,-1.1995822E-2,1.5259157E-2,2.3527896E-2,9.466948E-2,-2.7466536E-2,4.6479814E-2,-7.47144E-2,2.6791384E-2,6.163676E-3,3.722023E-2,3.6395643E-2,1.257768E-1,-5.2207824E-2,-1.1448149E-2,-2.2325492E-2,-1.0730417E-1,-2.0045908E-2,1.03992105E-1,-3.4423385E-2,-1.4823515E-3,-2.0279827E-2,-1.6126218E-1,4.2288758E-2,-1.230333E-2,6.463674E-2,9.995704E-3,5.3420123E-3,3.8484123E-2,1.4410895E-2,-7.2398484E-2,1.1521423E-1,1.690032E-2,-3.5721254E-2,1.0920212E-2,4.6748505E-3,-4.65216E-2],"split_indices":[0,0,1,1,1,1,1,1,1,1,0,0,0,0,0,1,0,0,1,1,0,1,0,1,0,1,0,1,0,0,1,0,0,0,0,1,0,0,0,1,0,1,0,0,1,1,1,1,1,1,1,0,0,0,0,0,0,0,0,0,0,0,0,0,0,0,0,0,0,0,0,0,0,0,0,0,0,0,0,0,0,0,0,0,0,0,0,0,0,0,0],"split_type":[0,0,0,0,0,0,0,0,0,0,0,0,0,0,0,0,0,0,0,0,0,0,0,0,0,0,0,0,0,0,0,0,0,0,0,0,0,0,0,0,0,0,0,0,0,0,0,0,0,0,0,0,0,0,0,0,0,0,0,0,0,0,0,0,0,0,0,0,0,0,0,0,0,0,0,0,0,0,0,0,0,0,0,0,0,0,0,0,0,0,0],"sum_hessian":[1.88E3,1.91E2,1.689E3,1.43E2,4.8E1,7.06E2,9.83E2,9.5E1,4.8E1,4.7E1,1E0,2.65E2,4.41E2,8E0,9.75E2,3.1E1,6.4E1,3E1,1.8E1,4.4E1,3E0,1.3E1,2.52E2,2.7E1,4.14E2,1.9E2,7.85E2,2.7E1,4E0,3E0,6.1E1,1.4E1,1.6E1,4E0,1.4E1,4.1E1,3E0,1E0,2E0,6E0,7E0,1.2E1,2.4E2,1.5E1,1.2E1,7.8E1,3.36E2,5.7E1,1.33E2,3.42E2,4.43E2,5E0,2.2E1,2E0,2E0,2.7E1,3.4E1,4E0,1E1,3E0,1.3E1,3E0,1E0,7E0,7E0,3.8E1,3E0,4E0,2E0,1E0,6E0,4E0,8E0,3.2E1,2.08E2,1.1E1,4E0,6E0,6E0,4.5E1,3.3E1,2.9E2,4.6E1,4E1,1.7E1,5E0,1.28E2,2.33E2,1.09E2,3.9E2,5.3E1],"tree_param":{"num_deleted":"0",